tree
version=v4
num_class=1
num_tree_per_iteration=1
label_index=0
max_feature_idx=100
objective=lambdarank
feature_names=booking_count booking_prior click_prior comp1_inv comp1_rate comp1_rate_percent_diff comp2_inv comp2_rate comp2_rate_percent_diff comp3_inv comp3_rate comp3_rate_percent_diff comp4_inv comp4_rate comp4_rate_percent_diff comp5_inv comp5_rate comp5_rate_percent_diff comp6_inv comp6_rate comp6_rate_percent_diff comp7_inv comp7_rate comp7_rate_percent_diff comp8_inv comp8_rate comp8_rate_percent_diff day mean_max_distance_diff mean_train_position month orig_destination_distance orig_destination_distance_mean orig_destination_distance_median orig_destination_distance_std previous_searches price_usd price_usd_mean price_usd_median price_usd_std promotion_flag prop_brand_bool prop_country_id prop_location_score1 prop_location_score1_mean prop_location_score1_median prop_location_score1_std prop_location_score2 prop_location_score2_mean prop_location_score2_median prop_location_score2_std prop_log_historical_price prop_log_historical_price_mean prop_log_historical_price_median prop_log_historical_price_std prop_review_score prop_review_score_mean prop_review_score_median prop_review_score_std prop_starrating prop_starrating_mean prop_starrating_median prop_starrating_std random_bool site_id srch_adults_count srch_adults_count_mean srch_adults_count_median srch_adults_count_std srch_booking_window srch_booking_window_mean srch_booking_window_median srch_booking_window_std srch_children_count srch_children_count_mean srch_children_count_median srch_children_count_std srch_destination_id srch_length_of_stay srch_length_of_stay_mean srch_length_of_stay_median srch_length_of_stay_std srch_query_affinity_score srch_query_affinity_score_mean srch_query_affinity_score_median srch_query_affinity_score_std srch_room_count srch_room_count_mean srch_room_count_median srch_room_count_std srch_saturday_night_bool visitor_hist_adr_usd visitor_hist_adr_usd_mean visitor_hist_adr_usd_median visitor_hist_adr_usd_std visitor_hist_starrating visitor_hist_starrating_mean visitor_hist_starrating_median visitor_hist_starrating_std visitor_location_country_id year
feature_infos=[0:153] [0:1] [0:1] [-1:1] [-1:1] [2:43] [-1:1] [-1:1] [2:59] [-1:1] [-1:1] [2:51] [-1:1] [-1:1] [2:55] [-1:1] [-1:1] [2:63] [-1:1] [-1:1] [2:54] [-1:1] [-1:1] [2:59] [-1:1] [-1:1] [2:47] [1:31] [0:309.01499999999999] [1:37] [1:12] [0.01:11635.530000000001] [0.23000000000000001:11644.15] [0.12:11644.15] [0:7586.3154000000004] [0:2092] [0:484.82999999999998] [0.050000000000000003:482.13499999999999] [0.050000000000000003:484] [0:229.72485] [0:1] [0:1] -1:219:100:55:99:31:129:220:59:215:98:216:158:205:39:132:117:15:92:103:4:81:14:32:202:73:41:56:225:18:80:164:50:109:60:181:35:138:70:157:9:26:137:23:223:154:2:178:53:127:88:206:48:13:213:224:221:125:212:211:17:45:145:33:230:194:30:68:40:155:16:27:106:162:47:229:119:186:42:113:200:86:74:156:123:91:96:102:37:22:76:149:159:97:153:134:93:152:10:71:77:11:57:151:187:34:72:161:196:61:122:182:214:171:20:63:189:201:169:177:195:44:143:163:65:90:160:173:207 [0:6.9800000000000004] [0:6.9800000000000004] [0:6.9800000000000004] [0:0] [0:0.99919999999999998] [0:1] [0:1] [0:0.69551019999999997] [0:6.21] [0:6.21] [0:6.21] [0:4.3911332999999999] [0:5] [0:5] [0:5] [0:0] [0:5] [0:5] [0:5] [0:0] [0:1] -1:5:14:15:24:32:18:16:12:9:7:19:22:11:31:29:26:4:25:34:1:13:23:10:17:2:3:27:30:28:6:21:33:20 [1:9] [1:8] [1:8] [0:4.9497476000000002] [0:482] [0:315] [0:315] [0:223.44574] [0:9] [0:3] [0:3] [0:2.6832817000000002] -1:8192:4562:9402:8347:10979:13292:23904:13870:18774:13216:3073:24700:6948:15307:5143:26067:21871:20319:25426:7714:23605:17713:15122:25479:23246:3694:23090:13539:15620:28317:20438:4335:4138:21808:2303:6991:7434:24731:9265:4182:6792:12454:10010:15438:570:19215:28172:2518:982:5872:1986:2142:9412:8660:20905:1815:19968:25556:4075:25964:19898:9899:44:9358:4748:15764:7384:12588:26392:13202:13927:24131:17759:27620:18495:21382:7683:4072:16570:18825:16076:23495:26037:27730:24232:22134:10032:17582:18139:16858:12452:10424:6443:27770:26928:11308:7473:1020:4045:4599:27000:17012:28150:17311:20551:28201:9371:10737:16086:11323:16822:1588:11507:25614:25801:17603:5206:20857:20874:23666:2173:6785:25981:3095:24752:6285:3187:6678:3410:11230:8993:12582:21344:21494:8612:12736:26389:27236:8081:19194:23840:9975:24373:11299:17707:10446:15934:9137:4041:19392:7516:8714:10757:20268:7322:22043:6695:11468:2290:7971:10343:4440:24521:10948:11846:12907:16888:10775:16823:11381:26458:4828:11537:23769:15632:24026:19222:25335:15669:27231:3715:18367:23452:2360:5677:17038:18547:22097:23695:26531:9387:4510:18948:3404:8026:16696:22567:3821:18791:7306:12902:11205:17796:27101:3806:22616:8007:18369:7933:21636:1404:19078:14167:20497:23431:15253:26172:9695:9179:24674:8590:14684:15650:15893:16363:19363:7246:8628:15208:15566:8740:10794:10999:22945:4447:7100:15353:16517:17079:18410:20216:22918:305:2045:16794:21232:26566:4687:9026:11357:23753:15495:19521:22766:25017:2870:11173:18933:1721:14053:1996:691:2343:11530:26765:26819:16052:25436:14177:27397:27608:8609:12410:23445:26993:22132:6080:11783:12079:15066:20583:22784:9037:15534:6722:3390:4374:10894:18433:874:20799:24120:22835:23676:5157:9847:4862:23027:5577:24804:2715:13313:27155:4060:13233:23561:26571:1143:3544:5156:5450:11409:11543:13483:26085:10679:15146:19901:19994:23435:2463:12571:19982:27182:519:14669:26120:454:24949:1638:5474:15153:16654:20721:5536:7772:12812:17876:5975:9421:11339:13319:19274:1861:3582:6592:12819:14081:26086:5797:15846:17712:1047:1306:7267:7512:18310:26238:4695:8721:12494:25668:28010:23245:3735:7041:21913:2906:4026:13275:14194:8077:11673:13430:18757:21207:26065:1515:5983:7082:601:2502:4637:5521:14506:14866:16953:20242:25121:2964:6783:20820:25593:447:6364:13570:5848:14304:15056:21087:22608:23276:6475:11885:22162:27906:7708:11164:19940:22307:23688:25540:50:1284:7363:11868:15588:18191:19618:14683:17659:18111:19779:23052:4458:19965:24162:25423:27696:8084:9855:11939:16770:19146:20193:25567:4924:6806:7770:14155:17747:6659:4552:6507:6867:11696:15571:15748:20459:3602:8557:12692:18000:20596:26484:5028:26413:10559:11580:14856:15784:19371:22620:2854:8367:19724:21160:23095:8841:11842:12193:16170:9088:13512:19386:19741:21897:27769:6621:12443:19115:20535:4427:8214:10877:16876:21061:24994:1238:7220:10491:10778:11900:12432:14395:26361:13901:17638:25831:28340:5325:6058:16701:22393:24403:4485:7961:12072:25768:2323:6511:10848:12519:16902:18262:23135:24042:8156:9340:13472:14153:15000:19877:20112:25783:5888:6386:23055:28305:3422:6239:6753:10475:14389:15752:25055:27445:28140:3459:5241:8851:10518:10898:19575:20453:20686:24460:7258:9082:11022:13687:14239:16810:17856:20226:22204:26192:26820:2755:2909:7676:9453:10048:13083:16529:19884:22084:22417:27338:1335:4460:5428:7966:14230:15654:16359:17621:18593:19283:25345:25733:153:325:6189:13847:17549:18822:904:5098:5313:8909:9942:14043:17134:18175:19045:19688:25721:28088:2222:2256:5350:5464:10603:11598:26837:26865:270:2496:7723:8183:9221:14161:14366:16673:19245:987:1600:5537:15756:25160:3069:5192:7029:8254:8391:13013:13893:17618:20853:21415:24002:24454:26743:27669:280:825:1775:2954:6346:6771:10403:12447:27735:3465:5454:6296:7202:11197:15888:19626:20324:22261:22380:22429:23421:23433:25051:25718:27189:27542:1800:6726:6879:7950:8358:9536:10893:14232:17204:19449:21769:23957:24296:25332:28315:5606:6615:7680:10023:11966:18349:22170:27372:1785:2346:2907:11261:11667:14963:16757:18982:23475:24897:25564:697:4798:6292:6311:8520:10374:15260:19314:24762:25384:27891:1161:1378:6066:7976:11235:11399:12638:15652:16336:25365:607:1199:2274:4073:4650:8551:10061:20409:23190:23649:24681:27929:3362:4772:4955:5931:8840:10959:11224:11621:13263:16135:16974:19213:22056:26919:27739:27854:316:3891:8082:11280:15040:17768:18271:18357:20613:21576:27728:28407:1828:2319:3780:7583:8801:10797:13241:16841:20491:21708:23389:23453:23742:23841:24649:27615:1097:1742:4324:4463:5834:8053:13415:14071:14490:16330:18309:19781:21725:1681:3315:4550:5562:10758:10993:11244:11416:12449:13104:13105:14228:21077:27124:1656:5228:7037:7499:7656:13247:15041:16335:16450:21150:22457:22589:23129:24280:24800:27966:1346:5478:7104:8490:9403:12451:13524:14083:15712:17383:17516:17548:23047:23112:24514:25298:25572:25707:27456:341:2928:5437:6179:7329:7941:8469:8934:13502:13784:17970:18366:20834:21908:24966:25836:27280:27402:1811:2475:3861:5903:6230:9326:11180:13436:14266:14274:16361:17402:17764:19812:21002:22984:25737:26785:27359:27530:28399:517:877:1442:1505:1737:2117:3358:3993:6502:8114:8159:9104:9910:10064:11927:13164:16315:18712:18945:20477:20700:22042:22434:22618:24765:25682:27959:1148:3591:3639:4171:6546:7342:9186:10508:13993:14028:14247:14324:17513:17933:20515:20574:22879:22911:23289:25026:25153:26957:2510:2716:3045:5144:6005:6106:7274:7318:9234:9494:10876:11073:11917:13388:14797:15428:15978:19297:22059:22164:22400:22851:23313:25313:26850:27197:1671:1801:1955:3217:3580:4690:5258:5452:6171:14244:16132:20965:21220:27192:27319:27701:504:2794:2799:3648:7327:13541:16458:18185:18246:19400:19510:21992:23604:24529:24620:26343:3116:3509:4453:5614:6072:6526:6892:7224:7573:9086:11813:12823:15641:18319:18586:19435:19866:20446:26929:2682:3978:5665:6424:7783:8812:9175:11238:13644:14612:15913:17546:17685:17909:19782:20253:20355:20531:20757:21055:21266:21595:22232:24153:25293:26661:26995:22:1741:1804:3402:4377:4737:8064:9297:9428:9733:12610:13066:13276:15475:16213:17218:18535:18584:19516:24847:25215:26184:26341:27605:27717:1146:1521:3074:4384:4617:7236:10625:11395:12802:13553:13945:15359:15378:17662:17971:18337:25821:25891:26522:28203:971:1154:3164:4858:5340:9051:12002:12710:15454:15465:15806:15982:17232:17237:17801:20392:20995:23990:24630:102:344:556:836:927:1393:1647:2219:2831:3339:5249:9105:12053:13566:13681:14912:16550:18439:19390:19675:20475:21038:21634:23237:23682:23779:24101:26451:26538:26892:26918:27425:27509:28217:392:1598:1699:2591:2696:3254:3912:4624:7255:8540:9483:10623:10662:11675:12434:13330:14858:16559:18030:18277:21326:21924:24573:24996:25851:27761:27986:28139:12:912:1874:2205:2484:5199:5256:5615:5690:6246:6471:7033:7237:7243:8725:9345:10795:11523:11894:12123:12456:13856:14711:14957:15265:15850:18099:18703:19139:19612:20061:20118:21190:22143:23345:23448:26656:27380:27778:28398:2043:2685:2744:3919:6226:7624:7944:8859:9384:9922:10114:12420:12642:13118:14245:14262:14519:14922:15733:17723:17898:21088:21939:22213:22592:22681:22730:23274:23342:23568:24714:24904:25379:25877:27684:144:389:592:747:784:1212:1817:3886:4271:4279:5538:5773:6012:6146:6537:6603:6704:7543:10252:10257:11700:11870:15684:15961:16048:16172:16497:17111:18285:19118:19238:19789:19977:22088:22390:22746:23124:23624:24366:24555:25136:25158:25387:25484:25878:67:639:1083:2134:2362:3170:3233:3482:4414:4803:5465:7093:7504:8133:9068:9422:9908:10358:11228:12967:13804:13904:14294:14917:15478:15494:15811:15946:16367:17717:18282:18360:18405:18451:20372:20555:20829:21689:22112:22136:22237:22270:23046:23415:23678:23968:24398:24887:24889:24950:25197:25565:26372:26846:27172:361:794:1140:2412:2731:3670:4238:4307:4621:4766:5116:5900:6054:6057:7721:7827:7897:8162:8173:8589:9591:10099:10324:10325:10576:10703:11254:11442:12296:12367:14014:14992:17859:18294:19069:19304:20514:23295:24049:25590:25615:25840:26109:26132:26360:26750:26814:28355:231:442:734:1533:1553:2012:2291:2932:4038:4715:5195:5574:5664:5813:7491:7934:9011:9185:10123:10885:11033:11036:11458:11848:14358:14972:16222:16422:17217:17248:17602:18102:18317:18850:21792:22378:22413:23835:26038:27176:28254:28369:221:545:1244:2011:2194:2551:2770:2869:3526:4412:4613:5289:5394:5502:6045:6711:6849:6869:6917:7298:7600:7643:8023:9380:9950:10026:10340:10429:11239:11683:12113:12411:13408:16639:16952:18684:19709:19791:20240:21208:22077:22215:22632:22837:23384:23588:24401:25427:26141:26313:26815:26925:27838:28277:473:1099:1195:1262:1414:2136:2746:3569:4490:4635:4801:5112:5837:6476:6665:6697:6820:7571:7664:9258:10398:11133:11263:11752:11945:11977:12948:13298:13886:14100:14742:15186:15608:15695:15726:15906:16045:16317:16608:16799:17252:17782:18154:19960:20203:20213:20482:21856:22311:22853:23004:23020:23249:23591:24333:25060:26030:26137:26152:26690:26829:27451:27715:27896:28090:85:417:439:1232:2509:2675:3083:3435:3731:4354:4813:5442:5624:6653:7913:8568:9459:9903:11471:11719:12739:14041:14182:14299:14325:15276:15964:16120:16576:16754:17100:17137:18446:19144:19352:21089:21173:21489:26938:27142:27662:530:1033:1040:1331:1397:1412:1510:1641:1842:2241:2507:2784:3015:3025:3936:4331:4467:4486:4523:5045:5328:9220:9580:9587:9887:9936:10208:10596:10616:11360:11387:11897:12852:14074:14412:15867:15942:15953:15989:15996:16699:17531:18249:18716:18907:19453:20099:20305:20313:20591:21948:22163:22478:22819:23394:24742:25338:25349:25352:25403:25537:25704:26105:26106:26151:26217:26591:26960:27131:27295:227:1866:3278:3954:4616:4706:5169:5612:5625:6401:7900:8111:8646:8767:8978:10160:10162:10172:10249:10801:11497:11630:12022:12106:12581:12994:13073:13215:13534:13753:13818:13912:14805:15280:15541:15687:15730:16063:17017:17196:17520:17586:18017:18161:18237:18552:19508:19679:19820:20034:20354:20489:21218:21495:22148:22596:23596:23820:25514:26095:26676:27472:27561:27953:317:667:1063:1106:1141:1188:1464:2128:2393:2569:2877:4389:4628:4842:5137:5849:6127:6162:6826:7154:7161:7619:7751:8182:8635:8745:8836:9202:9318:9652:10075:10433:10580:11626:11814:12267:13910:14037:15708:16110:16959:17330:18389:18516:18577:18607:18722:19191:19282:19553:20543:20588:21084:21126:21474:21627:22347:22542:22558:22760:22848:22959:23059:23173:23396:23414:23458:23661:24052:26049:26507:27724:28079:28292:142:1187:1478:1761:2063:3099:3108:3468:3531:4739:4995:5315:5317:5353:6417:6687:7134:7357:7396:7834:8644:9927:10247:10472:10949:11792:11926:11987:12231:12660:13078:13101:13802:14059:14834:15144:15223:15413:15560:15738:15981:16301:16364:16617:16645:16834:17179:17264:17455:17644:18131:18321:18490:18908:19289:19423:19631:19707:21346:21378:21867:22104:22184:22556:22892:24114:24115:24582:25091:25376:26143:26306:26307:26380:26600:26602:27044:27699:27758:27978:27991:28210:87:262:562:647:671:1323:1479:1832:2728:2825:4033:4437:4438:4670:5968:6736:6833:7919:8304:8361:8754:8856:9062:9392:9600:9608:9683:9713:10328:10661:10867:11589:12208:12282:12283:13791:13844:13938:14127:14331:14757:14779:15247:15279:15281:15892:15979:16034:16475:16583:17181:17732:18521:18597:19980:20337:20393:20507:21177:21249:21369:21521:21995:22898:22903:24077:25412:25575:25766:25999:26183:26279:26473:27086:27419:27446:27712:27867:28357:155:168:225:433:650:1052:1380:1532:1808:1894:1957:2514:2546:3178:3611:3721:3946:4605:4857:4867:5376:5674:5783:5890:5986:6728:6875:7004:7146:7348:7760:7993:8307:8364:8596:10292:11425:12511:13729:14459:14570:14704:14835:15356:15421:16396:16516:16598:16828:17597:17640:18419:18454:18612:18688:19622:20275:20506:21296:21358:21574:21839:21885:22145:22419:22683:23203:23252:23425:23641:23859:23988:24009:24078:24089:24673:24735:24803:25036:25044:25104:25134:25895:26425:26465:26832:27026:27213:27512:27529:27741:27797:28030:81:236:245:654:770:1112:1221:1314:1460:1551:1963:2029:2440:2600:2699:2780:3157:3294:3380:3968:4213:4452:4548:4799:4861:4948:5201:5363:5406:5431:6089:6333:6414:6637:6889:6966:7015:7182:7500:7705:7777:8083:8222:8504:8730:8832:8884:9250:9479:9763:9785:9808:10120:10170:10341:10378:10975:11246:11296:11809:12244:13054:13166:13192:13351:13355:13820:14466:14634:14656:14935:15209:15243:15643:15655:15793:16420:16624:17051:17753:17911:18001:18005:18058:18291:18293:18404:18783:18900:18992:19216:19580:19645:19816:20082:20306:21319:21891:23035:23214:23330:23444:23466:23640:23791:23871:23929:24142:24151:24214:24219:24566:24624:24651:24747:24771:24813:24888:25445:25464:25549:25902:26103:26131:26383:27120:27347:27513:27516:27685:27742:28048:28197:15:294:350:402:485:580:698:729:924:1159:1263:1562:1849:2083:2200:2464:2723:2849:3053:3513:3725:3802:3889:3904:3949:4352:4375:4421:4465:4586:4600:4923:5691:5784:5841:6465:6553:7616:7655:7717:7872:8127:8442:8478:8526:8641:8683:9120:9205:9458:9650:9704:10083:10165:10729:10744:11167:11461:11634:11654:11948:12107:12359:12406:13741:14375:14407:14429:14630:14744:15078:15312:15431:16043:16156:16179:16494:16788:16869:16942:16988:17207:17470:17738:17852:18060:18265:18608:18643:18659:18894:19200:19947:20249:20397:20787:21117:21263:21312:21404:21816:22087:22327:22424:22512:22723:22916:23100:23105:23278:23299:23644:23858:24385:24596:24686:24853:25110:25234:25659:25696:26153:26358:26366:26450:26585:26831:26907:26982:27177:27355:28008:28320:120:823:838:973:983:1396:1463:1617:1976:2139:2198:2212:2568:2861:3001:3152:3155:3528:3634:3884:3903:4020:4032:4077:4241:4579:4685:4747:4910:5048:5102:5523:5708:5794:5889:6602:6655:6776:7162:7642:7833:7848:8059:8398:8670:8703:8981:9015:9115:9141:9204:9436:9735:10037:10199:10228:10520:10552:10751:11297:11355:11563:11825:12073:12088:12484:12591:12605:12621:12756:12848:13137:13582:13810:13859:13898:14065:14109:14251:14275:14482:14514:14682:14721:14781:15094:15492:15761:15829:16243:16298:16644:16697:16904:17165:17176:17296:17348:17622:18171:18248:18478:18499:18563:18773:18972:19570:19721:20211:20837:20839:20861:20996:21308:21646:21653:21688:21727:21815:21958:22121:22221:22303:22521:23141:23397:23409:23468:23545:23714:24027:24032:24127:24635:25096:25193:25270:25286:25415:25723:25974:26087:26427:26609:26896:27030:27116:27264:27462:27787:27949:28263:28306:104:150:264:390:543:572:740:762:976:1173:1240:1655:1995:2101:2306:2447:2789:2818:2896:3221:3439:3480:3502:3661:3703:3761:3849:4316:4333:4598:4606:4620:4681:4979:5091:5100:5128:5331:5356:5518:5599:5675:5790:5860:5934:6094:6222:6284:6355:6689:6933:6943:7163:7225:7376:7828:7874:8141:8473:8556:8766:8820:8923:9067:9087:9351:9397:9560:9701:9761:9833:9974:10125:10241:10359:10494:10527:10549:11344:11485:11616:11617:11735:12030:12054:12349:12375:12402:13334:13367:13381:13387:13475:13668:14010:14103:14256:14453:14500:14649:14936:14960:15051:15258:15419:15586:15957:16331:16636:16676:16690:16980:17037:17187:17240:17430:17503:17522:17900:17988:18067:18243:18781:19021:19179:19252:19273:19745:19818:19911:20299:20360:20361:20468:21018:21157:21180:21240:21394:21717:21764:21776:22008:22017:22072:22345:22448:22458:22493:22546:22623:22694:22813:22833:22875:23127:23331:23371:23525:23786:23970:24053:24068:24155:24192:24499:24569:24612:24818:24828:24948:25363:25740:25909:26198:26237:26357:26462:26513:26551:26667:26834:27006:27268:27320:27695:27806:28001:28115:28284:175:180:277:278:303:418:917:1185:1410:1662:2161:2500:3309:3673:3765:3934:4124:4565:4777:5270:5282:5641:5859:6314:6353:6402:6520:6536:6800:7017:7048:7176:7399:7454:7553:7677:7750:7954:8063:8178:8401:8439:8587:8874:9090:9226:9312:9374:9433:9585:9617:9739:9795:9879:9981:10019:10024:10185:10254:10320:11078:11455:12099:12201:12520:12533:12631:12900:13147:13228:13696:13815:13835:13872:14019:14316:14663:14873:15252:15502:16432:16611:16691:16732:16765:17271:17337:17356:17558:17565:17599:17643:17784:17914:18363:19003:19008:19244:19302:19351:19777:19867:19924:19939:20008:20307:20373:20577:20689:20691:20752:20800:21059:21194:21267:21287:21416:21618:21760:21840:21936:22178:22271:22310:22328:22479:22503:22578:22646:22857:22872:23033:23039:23837:23923:23933:24084:24097:24468:24488:24615:24677:24769:24770:24983:25210:25411:25509:25532:25592:25985:26094:26096:26288:26555:26824:26838:26895:26901:27023:27057:27080:27836:27883:27969:28049:28080:28122:28283:28346:453:478:630:1136:1252:1261:1425:1639:1650:1744:1848:1988:2072:2085:2100:2429:2501:2668:2791:2985:3090:3144:3145:3184:3227:3341:3658:3790:3812:3836:4125:4189:4193:4247:4513:4709:4886:4904:4993:5083:5117:5159:5193:5251:5373:5412:5459:5529:5671:5695:5836:5942:5949:6092:6096:6366:6478:6616:6795:6819:7188:7326:7335:7416:7482:8066:8112:8212:8232:8481:8533:8546:8571:8838:8942:8961:9119:9227:9271:9521:9811:9901:9909:9990:10095:10143:10155:10156:10212:10450:10532:10583:10742:10982:11122:11363:11407:11436:11688:11725:11818:11836:11886:11942:11950:12418:12446:12676:12781:12801:12860:12862:13595:13647:13911:14015:14032:14034:14050:14052:14215:14272:14302:14345:14351:14354:14380:14643:14713:14940:15091:15184:15830:15903:16010:16175:16239:16282:16302:16446:16534:16556:16607:16704:17173:17324:17338:17408:17534:17579:17673:17740:17897:18207:18230:18339:18361:18414:18444:18465:18760:19012:19032:19145:19287:19327:19465:19941:19962:20037:20045:20046:20090:20149:20177:20620:20782:20838:20848:20948:21052:21054:21060:21167:21171:21247:21480:21520:21619:21711:21963:21975:22041:22074:22117:22141:22149:22398:22450:22460:22570:22791:22801:22802:22840:22874:22939:22962:23212:23227:23326:23510:23536:23642:23761:23789:23830:24159:24258:24325:24728:24991:25034:25037:25320:25324:25329:25360:25461:25505:25558:25734:25888:26035:26293:26342:26351:26398:26466:26506:26910:27175:27290:27571:27737:27849:27907:27985:28002:28036:28267:28395:28406:287:363:483:1000:1151:1246:1289:1353:1395:1537:1565:1586:1658:1672:1677:1774:1833:1927:1956:1962:1978:1989:2294:2332:2388:2403:2547:2549:2631:2853:2951:2978:3218:3396:3462:3581:3716:3750:3971:3973:4021:4287:4295:4350:4431:4691:4794:4907:5032:5063:5130:5259:5296:5384:5441:5477:5568:5670:5748:5879:5886:6001:6108:6119:6156:6211:6430:6830:6874:6938:7101:7125:7383:7411:7581:7781:7830:7864:7945:7962:7979:7985:8171:8300:8325:8419:8522:8573:8604:8649:8854:8889:9097:9262:9385:9417:9823:10055:10188:10226:10342:10481:10639:10719:10752:10765:10773:10933:10983:11051:11146:11195:11247:11253:11417:11590:11609:11611:11777:11956:11967:12041:12103:12218:12261:12437:12453:12512:12558:12603:12619:12670:12690:12776:12914:13106:13131:13152:13174:13254:13392:13443:13637:13700:13716:13721:13867:13888:14078:14278:14297:14405:14445:14532:14702:15039:15054:15075:15351:15451:15455:15533:15550:15677:15912:15974:16095:16290:16394:16455:16490:16498:16512:16522:16620:16748:16760:16903:17032:17057:17068:17146:17701:17744:17830:18002:18377:18540:18579:18652:18661:18734:18772:18789:18885:18949:19165:19223:19260:19267:19276:19414:19585:19981:20150:20291:20498:20526:20593:20918:20957:21243:21323:21441:21518:21645:21661:21864:21881:21959:22040:22061:22114:22381:22514:23050:23174:23263:23300:23422:23529:23531:23571:23607:23613:23767:23894:24379:24443:24556:24703:24720:24739:24933:25115:25248:25331:25370:25371:25520:25644:25744:25825:25852:25946:25954:26335:26409:26475:26569:26581:26588:26685:26873:26912:26942:26989:27068:27104:27210:27299:27454:27476:27578:27752:27860:27871:27877:27942:27992:28134:28235:123:220:286:295:349:354:532:655:756:963:1128:1176:1224:1336:1343:1405:1472:1490:1680:1789:1878:1885:1910:1929:2006:2041:2069:2124:2359:2392:2395:2772:2783:2893:2940:3124:3159:3302:3405:3418:3442:3467:3496:3671:3875:4003:4034:4146:4214:4264:4400:4468:4488:4569:4576:4649:4702:4728:4901:4912:4931:4976:5106:5123:5300:5337:5346:5367:5379:5417:5430:5475:5520:5532:5603:5810:5851:5856:6552:6648:6784:6810:6832:6871:6891:6935:7120:7362:7371:7423:7445:7488:7505:7513:7687:7747:7759:7767:7860:7915:8014:8154:8196:8223:8260:8289:8301:8339:8405:8559:8659:8681:8778:8789:8799:8810:8850:8928:8969:9188:9246:9301:9303:9343:9372:9526:9618:9620:9883:9926:9961:9976:9994:10091:10149:10326:10354:10442:10444:10479:10545:10638:10701:10731:10827:10859:10879:10902:11053:11163:11392:11403:11483:11526:11544:11570:11746:11913:11947:11978:12039:12068:12100:12154:12172:12195:12311:12343:12398:12506:12601:12661:12682:12879:12926:12939:12972:13055:13076:13121:13350:13522:13544:13622:13632:13794:13796:14002:14016:14021:14031:14048:14055:14220:14292:14348:14463:14534:14543:14658:14710:14731:14747:14896:14907:14982:14999:15163:15164:15289:15321:15376:15403:15461:15471:15553:15592:15611:15627:15714:15839:15851:15972:16026:16123:16202:16269:16319:16521:16564:16582:16596:16632:16643:16646:16756:16849:16859:16975:17022:17052:17106:17172:17202:17229:17282:17488:17564:17715:17729:17835:17862:18053:18177:18300:18381:18386:18394:18447:18510:18519:18523:18619:18674:18707:18752:18780:18808:18814:18833:18911:19027:19064:19152:19161:19318:19333:19358:19447:19512:19544:19600:19624:19715:19839:20055:20125:20402:20605:20886:20908:20963:20970:21174:21182:21215:21309:21440:21578:21605:21625:21663:21745:21779:21783:21845:21954:21968:21974:22201:22217:22332:22466:22744:22759:22799:22828:22938:23108:23119:23570:23659:23708:23952:24074:24103:24450:24459:24462:24638:24705:24707:24820:24910:24916:25164:25187:25205:25281:25368:25439:25442:25578:25597:25603:25694:25709:25815:25894:26138:26234:26272:26303:26400:26525:26607:26648:26992:27004:27012:27031:27105:27107:27235:27296:27562:27681:27771:27792:27820:27885:27912:27954:28019:28149:28166:28168:28189:28311:28366:70:79:134:140:234:259:276:319:338:362:408:437:450:516:560:586:606:621:628:668:718:814:818:865:889:1035:1116:1121:1125:1293:1340:1481:1523:1560:1603:1637:1727:1778:1926:1951:1992:1999:2003:2017:2065:2088:2107:2108:2122:2123:2165:2320:2381:2416:2482:2489:2493:2516:2538:2594:2639:2648:2767:2775:2828:2837:2887:3102:3165:3177:3196:3314:3353:3423:3452:3478:3666:3767:3847:3988:4011:4027:4098:4117:4205:4336:4366:4499:4557:4574:4614:4640:4736:4877:5000:5019:5146:5177:5250:5252:5271:5352:5404:5418:5461:5563:5605:5731:5766:5776:5828:6019:6150:6202:6545:6584:6669:6735:6761:6769:6897:6910:6926:7014:7135:7153:7510:7533:7542:7869:7873:7884:7942:7946:8018:8027:8057:8283:8389:8426:8466:8512:8552:8585:8594:8680:8705:8719:8785:8816:8945:8974:9049:9133:9230:9400:9435:9485:9487:9549:9581:9597:9792:9929:10220:10242:10294:10318:10484:10672:10698:10833:10863:10917:10997:11088:11183:11202:11259:11302:11419:11422:11512:11600:11714:11723:11762:11827:11916:12153:12235:12287:12303:12314:12347:12360:12371:12481:12489:12502:12594:12822:12853:12876:13010:13040:13107:13125:13223:13225:13346:13451:13458:13513:13531:13580:13640:13665:13827:13829:13832:13842:13974:14027:14261:14337:14472:14823:14828:14948:14967:15029:15046:15111:15126:15181:15196:15226:15228:15360:15381:15426:15491:15506:15542:15618:15683:15691:15935:16044:16391:16403:16511:16679:16709:16715:16793:16989:17006:17014:17040:17042:17302:17303:17460:17478:17628:17766:17786:17828:17960:18028:18127:18165:18215:18220:18250:18493:18864:18877:18985:19001:19019:19071:19083:19122:19124:19208:19217:19291:19530:19581:19805:19915:19928:19944:19956:20029:20188:20386:20389:20534:20687:20710:20819:20872:20942:21014:21057:21073:21221:21331:21353:21531:21617:21706:21834:21844:21858:21944:22158:22165:22233:22268:22273:22302:22372:22468:22565:22573:22586:22653:22691:22764:22765:23011:23031:23166:23323:23340:23378:23420:23440:23487:23544:23677:23760:23834:23857:23862:23864:23867:23889:23906:23955:23977:24044:24047:24139:24158:24277:24299:24378:24390:24409:24495:24607:24708:24709:24785:24869:24894:24902:25151:25163:25198:25287:25322:25373:25453:25574:25647:25757:25962:25976:26155:26165:26241:26247:26262:26322:26362:26371:26408:26491:26500:26523:26568:26610:26705:26956:27016:27025:27043:27098:27180:27246:27308:27408:27522:27566:27594:27635:27650:27807:27847:27963:28026:28060:28133:28151:28206:28248:28381:29:33:149:223:267:284:289:357:366:398:436:618:620:719:724:738:962:988:1055:1068:1127:1190:1201:1223:1225:1250:1369:1390:1401:1420:1469:1484:1606:1633:1640:1711:1718:1767:1770:2075:2119:2149:2169:2216:2252:2286:2317:2325:2327:2351:2390:2438:2444:2474:2480:2491:2562:2563:2608:2681:2848:2867:2905:3066:3097:3132:3156:3188:3211:3215:3226:3246:3329:3498:3555:3620:3784:3822:3899:3909:3979:4048:4074:4089:4092:4161:4177:4196:4206:4320:4363:4506:4522:4589:4622:4671:4738:4786:4809:4844:4893:4998:5036:5084:5085:5113:5170:5173:5174:5262:5360:5503:5602:5742:5754:5899:5962:6013:6034:6050:6118:6120:6123:6158:6274:6349:6434:6463:6544:6766:6824:6858:6940:6955:6967:7036:7086:7137:7288:7337:7367:7404:7455:7493:7507:7604:7630:7633:7658:7699:7703:7769:7774:7846:7889:7936:7951:7983:8131:8197:8253:8257:8330:8412:8452:8474:8487:8509:8530:8561:8638:8699:8735:8774:8883:8918:8921:8944:8989:9048:9096:9159:9166:9240:9276:9291:9499:9509:9577:9604:9615:9616:9717:9758:9939:10034:10070:10121:10132:10169:10181:10290:10323:10331:10369:10379:10426:10428:10497:10590:10592:10593:10613:10648:10674:10809:10837:10864:11074:11165:11218:11287:11366:11373:11426:11433:11517:11577:11677:11991:12015:12016:12066:12133:12137:12146:12160:12175:12197:12241:12305:12340:12341:12342:12374:12413:12461:12566:12592:12628:12634:12635:12657:12701:12748:12790:12838:12864:12867:12888:12945:12953:12955:13085:13155:13175:13266:13290:13311:13354:13498:13504:13547:13611:13639:13641:13666:13686:13710:13776:13786:13882:13903:13929:13951:14007:14092:14132:14149:14170:14175:14385:14400:14423:14469:14473:14518:14677:14679:14816:14868:14988:15020:15030:15043:15107:15171:15177:15220:15231:15295:15309:15363:15399:15418:15423:15555:15648:15673:15777:15819:15918:15987:16183:16231:16233:16293:16311:16355:16444:16597:16665:16707:16743:16772:16816:16826:16857:16894:16979:17019:17073:17131:17164:17166:17236:17314:17325:17443:17505:17519:17573:17584:17620:17632:17755:17770:17785:17791:17806:17841:17880:17887:17899:17969:18034:18059:18093:18200:18266:18336:18345:18378:18481:18562:18599:18624:18744:18898:19054:19158:19183:19396:19535:19821:19827:19879:19983:19990:20041:20094:20156:20180:20210:20244:20315:20327:20334:20336:20350:20362:20366:20435:20472:20528:20538:20608:20610:20636:20711:20736:20743:20763:20783:20803:20845:20889:20952:20975:20987:21032:21109:21151:21161:21225:21277:21350:21361:21368:21446:21473:21487:21507:21594:21601:21693:21749:21807:21810:21855:21878:21909:21961:21967:21978:21983:22007:22023:22032:22065:22086:22100:22173:22227:22280:22304:22329:22396:22403:22501:22520:22613:22617:22642:22660:22662:22695:22786:22839:22846:22869:22927:22997:23025:23034:23060:23089:23104:23113:23128:23182:23213:23228:23238:23270:23287:23302:23314:23329:23343:23390:23432:23499:23548:23579:23581:23621:23630:23633:23672:23705:23839:23853:23943:23956:23987:23992:24001:24046:24060:24087:24281:24311:24334:24338:24348:24361:24391:24478:24512:24625:24859:24963:25093:25150:25256:25257:25296:25523:25550:25620:25633:25719:25731:25761:25823:25843:25864:25922:25961:26070:26079:26124:26179:26291:26327:26350:26367:26381:26448:26464:26493:26520:26528:26583:26594:26606:26733:26872:26889:26943:26972:27059:27085:27183:27200:27202:27260:27313:27337:27555:27587:27703:27743:27773:27788:27819:27842:27862:27870:27936:27955:27957:27958:27998:28132:28187:28244:28294:28349:28400:28416:2:30:51:56:138:160:169:190:352:381:446:564:573:585:597:603:682:688:725:739:743:771:776:778:799:843:934:1096:1104:1433:1447:1477:1491:1530:1556:1561:1579:1605:1631:1644:1683:1743:1762:1807:1813:1924:1941:1961:1970:1997:2042:2090:2141:2144:2158:2209:2292:2298:2333:2338:2401:2461:2481:2527:2545:2554:2581:2589:2601:2651:2653:2662:2693:2760:2762:2850:2879:2924:3027:3029:3030:3091:3105:3125:3201:3266:3337:3383:3440:3441:3472:3523:3546:3552:3560:3644:3650:3691:3695:3700:3747:3772:3798:3813:3856:3872:3908:4030:4084:4149:4152:4181:4288:4385:4416:4429:4454:4476:4496:4538:4546:4595:4851:4965:5005:5033:5056:5078:5086:5101:5182:5187:5204:5438:5553:5559:5592:5689:5737:5743:5777:5779:5806:5911:5919:5954:5957:5960:5972:6049:6053:6082:6100:6111:6178:6203:6232:6240:6290:6345:6372:6382:6390:6395:6459:6486:6488:6498:6509:6518:6568:6607:6667:6709:6750:6760:6778:6958:6968:6969:6970:7095:7106:7168:7245:7272:7344:7431:7462:7554:7593:7611:7613:7690:7710:7718:7820:7888:7952:7968:8002:8016:8030:8036:8072:8078:8079:8091:8160:8236:8276:8291:8349:8363:8386:8588:8617:8629:8636:8648:8673:8675:8682:8701:8708:8724:8746:8750:8780:8823:8868:8876:8880:8881:8917:8995:9023:9041:9064:9074:9101:9123:9152:9164:9194:9382:9425:9449:9477:9517:9566:9576:9644:9663:9680:9728:9764:9791:9818:9886:9913:9915:9949:9977:9989:10036:10086:10115:10128:10145:10231:10232:10269:10391:10441:10458:10460:10530:10574:10632:10641:10760:10761:10802:10812:10830:10834:10847:10897:10899:10944:11019:11040:11115:11155:11161:11214:11226:11257:11346:11396:11414:11435:11495:11498:11515:11516:11547:11548:11579:11583:11615:11711:11717:11791:11829:11852:11871:11880:11895:11903:11920:11980:12024:12032:12046:12078:12220:12251:12257:12324:12433:12465:12466:12510:12522:12562:12570:12617:12705:12738:12768:12787:12895:12933:12950:12965:12966:12993:13052:13117:13224:13230:13293:13304:13405:13437:13456:13467:13468:13563:13581:13585:13670:13674:13675:13678:13684:13694:13718:13757:13790:13797:13860:13865:13883:13970:14054:14089:14118:14141:14190:14191:14235:14283:14328:14373:14394:14488:14493:14546:14575:14610:14611:14632:14650:14749:14777:14794:14821:14833:14879:14959:15011:15016:15093:15157:15161:15168:15215:15221:15293:15328:15367:15439:15484:15488:15503:15544:15546:15577:15600:15645:15676:15705:15723:15810:15833:15866:15896:15933:15970:16011:16013:16049:16119:16126:16142:16146:16160:16200:16225:16260:16322:16358:16360:16400:16436:16477:16518:16539:16566:16672:16724:16734:16759:16783:16811:16812:16840:16885:16899:16947:16967:16976:17003:17011:17054:17075:17081:17096:17099:17130:17143:17183:17222:17223:17225:17322:17342:17450:17544:17637:17648:17690:17775:17864:17937:18031:18057:18065:18173:18222:18274:18303:18305:18316:18334:18372:18456:18488:18500:18527:18531:18536:18633:18873:18940:19025:19038:19053:19214:19231:19234:19255:19262:19281:19340:19343:19349:19372:19373:19501:19509:19551:19625:19639:19647:19662:19689:19723:19749:19873:19902:19905:19922:19927:19971:20002:20057:20058:20096:20130:20174:20196:20201:20332:20352:20356:20367:20447:20478:20504:20559:20654:20657:20740:20759:20791:20793:20856:20860:20863:21030:21043:21053:21079:21081:21090:21096:21115:21135:21164:21224:21245:21314:21324:21376:21425:21427:21456:21558:21582:21583:21650:21660:21673:21676:21707:21777:21782:21791:21823:21877:21879:21931:22018:22031:22052:22085:22102:22229:22256:22275:22277:22290:22361:22397:22415:22418:22486:22491:22561:22633:22649:22652:22713:22718:22781:22805:22817:23021:23098:23102:23125:23132:23159:23177:23204:23215:23220:23336:23357:23429:23559:23562:23657:23664:23680:23709:23719:23794:23860:23876:23878:23905:23920:23928:23954:23960:23993:24045:24094:24116:24167:24193:24206:24237:24320:24349:24356:24470:24481:24483:24489:24591:24592:24676:24726:24744:24764:24960:24962:24992:24997:25019:25142:25172:25228:25230:25246:25253:25279:25391:25399:25417:25430:25459:25487:25506:25522:25545:25576:25625:25654:25671:25720:25725:25811:25873:25910:25994:26009:26025:26154:26209:26239:26295:26325:26349:26387:26489:26530:26533:26650:26662:26672:26777:26827:26882:26891:26953:26961:26971:26979:27048:27050:27058:27066:27097:27103:27121:27128:27137:27147:27149:27186:27253:27256:27267:27281:27294:27315:27403:27414:27424:27444:27523:27531:27563:27577:27602:27603:27604:27679:27691:27753:27857:27863:27924:28041:28044:28061:28184:28213:28246:28273:28347:28359:9:14:18:24:38:46:103:111:113:162:178:265:274:279:304:311:326:393:405:416:461:481:497:502:503:525:561:631:760:773:793:816:817:847:856:864:875:903:905:921:980:991:1034:1041:1064:1074:1087:1100:1109:1117:1208:1229:1237:1268:1321:1334:1373:1497:1516:1544:1545:1574:1608:1609:1612:1623:1624:1684:1697:1702:1728:1776:1777:1792:1793:1845:1884:1905:1983:2015:2068:2146:2150:2152:2220:2264:2305:2322:2328:2376:2383:2387:2418:2523:2531:2536:2542:2575:2580:2590:2592:2610:2614:2617:2627:2635:2656:2660:2702:2759:2843:2856:2875:2880:2942:2969:2973:2981:2999:3003:3033:3041:3054:3064:3111:3128:3154:3160:3220:3228:3229:3271:3311:3312:3346:3357:3360:3403:3450:3469:3481:3559:3565:3575:3585:3630:3659:3665:3740:3741:3752:3791:3809:3826:3827:3865:3898:3911:3923:3943:3961:3974:3980:4004:4005:4016:4068:4099:4120:4147:4150:4170:4176:4183:4191:4227:4249:4268:4313:4358:4367:4378:4399:4413:4424:4457:4508:4544:4601:4603:4615:4661:4663:4669:4672:4711:4750:4759:4770:4776:4790:4839:4847:4860:4873:4885:4897:4918:4929:4970:4991:5149:5178:5194:5196:5207:5218:5233:5240:5304:5305:5311:5391:5416:5512:5514:5546:5552:5598:5604:5609:5634:5637:5639:5686:5696:5717:5724:5747:5750:5753:5756:5789:5843:5869:5907:5944:5980:5995:6016:6023:6032:6068:6151:6190:6206:6219:6225:6266:6278:6308:6313:6383:6391:6436:6490:6525:6527:6572:6601:6620:6641:6708:6786:6796:6812:6857:6868:6883:6884:6888:6901:6925:6987:6992:7052:7062:7078:7110:7143:7170:7189:7204:7208:7218:7238:7286:7303:7309:7325:7334:7336:7393:7395:7433:7444:7447:7470:7485:7494:7498:7587:7597:7650:7674:7688:7729:7738:7793:7808:7906:7960:7964:7973:7991:7996:8012:8020:8029:8044:8055:8060:8103:8186:8203:8256:8266:8269:8278:8292:8303:8342:8350:8357:8409:8416:8423:8436:8453:8472:8489:8491:8518:8544:8578:8591:8605:8606:8618:8627:8643:8653:8665:8678:8685:8704:8756:8764:8792:8817:8867:8878:8899:8935:8963:8966:9005:9045:9063:9111:9140:9177:9178:9212:9232:9244:9251:9298:9339:9346:9420:9426:9443:9462:9486:9491:9530:9531:9564:9625:9632:9658:9684:9720:9734:9775:9844:9857:9892:9893:9904:9912:9945:9951:9959:9984:10003:10015:10085:10093:10097:10108:10142:10178:10218:10239:10251:10259:10321:10334:10360:10366:10385:10396:10448:10470:10507:10515:10517:10521:10571:10579:10720:10741:10743:10754:10771:10793:10810:10852:10857:10880:10889:10921:10966:11096:11099:11108:11121:11127:11135:11142:11189:11194:11213:11217:11220:11234:11277:11325:11345:11354:11369:11400:11413:11424:11480:11499:11509:11536:11593:11594:11599:11625:11657:11666:11679:11690:11702:11705:11801:11858:11892:11969:11973:12019:12038:12049:12083:12091:12111:12126:12131:12180:12182:12192:12224:12232:12278:12291:12337:12358:12369:12373:12430:12435:12490:12526:12527:12626:12641:12652:12686:12706:12762:12774:12800:12816:12830:12843:12854:12863:12881:12901:12928:12964:12999:13037:13096:13142:13184:13194:13257:13288:13297:13358:13373:13377:13401:13439:13469:13540:13546:13561:13578:13609:13610:13614:13635:13722:13748:13834:13851:13862:13896:13948:13972:14049:14061:14090:14152:14166:14196:14241:14246:14277:14346:14353:14356:14397:14398:14402:14456:14464:14505:14530:14559:14605:14648:14697:14703:14728:14782:14842:14876:14888:14897:14900:14920:14926:15087:15104:15112:15125:15127:15142:15277:15284:15288:15329:15346:15393:15414:15422:15427:15435:15447:15474:15507:15510:15524:15551:15630:15646:15700:15772:15816:15820:15845:15861:15875:15922:15949:15994:15995:16004:16017:16085:16127:16143:16162:16168:16204:16273:16297:16299:16345:16346:16384:16428:16499:16525:16581:16586:16588:16609:16650:16714:16752:16762:16776:16821:16830:16863:16865:16891:16937:16944:16954:16998:17000:17004:17013:17026:17035:17087:17101:17112:17115:17126:17142:17147:17151:17174:17197:17209:17235:17284:17295:17300:17317:17350:17374:17404:17500:17509:17547:17557:17562:17630:17631:17652:17653:17656:17686:17718:17734:17818:17829:17838:17870:17878:17902:17949:17985:17993:17999:18003:18019:18247:18313:18323:18324:18352:18401:18408:18442:18479:18501:18557:18573:18580:18625:18640:18650:18658:18676:18718:18740:18759:18765:18793:18802:18821:18876:18927:18960:18981:18989:19000:19011:19043:19051:19081:19082:19085:19096:19130:19166:19175:19237:19261:19277:19280:19294:19303:19308:19310:19324:19355:19356:19357:19361:19397:19433:19450:19543:19596:19609:19616:19633:19642:19667:19687:19703:19719:19722:19726:19731:19780:19783:19809:19823:19829:19856:19862:19882:19889:19896:19938:20024:20026:20054:20069:20106:20120:20148:20168:20218:20221:20225:20246:20261:20278:20300:20303:20304:20309:20328:20343:20376:20388:20437:20467:20488:20505:20520:20611:20661:20667:20671:20690:20695:20754:20764:20784:20785:20807:20812:20813:20826:20831:20921:20935:20994:21005:21020:21026:21031:21122:21128:21154:21156:21162:21165:21176:21185:21209:21231:21234:21241:21248:21260:21264:21274:21307:21372:21375:21393:21395:21423:21453:21486:21492:21533:21547:21590:21667:21694:21712:21737:21857:21904:21984:22058:22066:22091:22098:22110:22118:22152:22156:22171:22191:22200:22202:22314:22358:22379:22386:22405:22431:22435:22453:22481:22606:22607:22634:22651:22735:22772:22785:22812:22841:22863:22870:22890:22917:22929:22932:22949:22963:22964:22976:23003:23007:23014:23044:23096:23097:23110:23161:23171:23221:23232:23266:23285:23311:23366:23370:23375:23388:23426:23436:23454:23484:23502:23512:23530:23549:23555:23564:23594:23597:23611:23635:23650:23702:23717:23720:23773:23798:23833:23838:23875:23947:23978:23998:24054:24086:24117:24119:24122:24164:24209:24212:24224:24252:24270:24271:24362:24368:24394:24416:24435:24440:24452:24461:24530:24536:24543:24564:24588:24594:24641:24642:24666:24672:24682:24712:24756:24761:24796:24821:24831:24834:24934:24952:25013:25023:25047:25106:25113:25124:25161:25169:25223:25245:25255:25277:25295:25308:25310:25340:25356:25364:25400:25405:25446:25465:25528:25541:25560:25581:25600:25617:25638:25649:25650:25658:25685:25692:25755:25807:25813:25817:25828:25847:25850:25860:25868:25914:25925:25927:25931:26034:26039:26057:26090:26102:26114:26164:26186:26196:26206:26213:26225:26227:26249:26276:26301:26308:26354:26382:26410:26428:26430:26467:26481:26487:26545:26549:26563:26584:26595:26603:26623:26664:26713:26767:26775:26787:26794:26835:26839:26984:27002:27034:27035:27055:27071:27073:27093:27164:27222:27238:27275:27276:27283:27300:27303:27450:27493:27532:27537:27538:27548:27581:27600:27636:27637:27643:27649:27655:27687:27772:27910:27925:27931:27996:28028:28042:28055:28064:28157:28199:28223:28274:28286:28323:28334:28341:28391:28392:28394 [1:34] [1:21] [1:21] [0:18.384777] [-226.38570000000001:-3.2101999999999999] [-168.57239999999999:-4.0133000000000001] [-168.57239999999999:-3.8536000000000001] [0:158.15219999999999] [1:8] [1:4] [1:4] [0:3.4641015999999998] [0:1] [0:1445.24] [0:1958.7] [0:1958.7] [0:1291.2194] [1.5:5] [1.5:5] [1.5:5] [0:2.1213202] -1:219:100:55:216:220:129:31:59:99:92:158:103:117:132:50:39:215:98:15:32:81:205:181:13:14:33:4:85:23:56:137:202:41:212:73:35:138:80:18:206:164:178:214:2:90:127:229:125:154:106:68:53:123:9:26:77:109:70:155:194:186:60:79:47:69:5:153:177:223:88:72:162:187:149:74:145:213:65:6:36:42:17:130:11:37:16:40:28:157:160:211:22:57:78:120:126:224:45:76:91:221:48:173:182:44:51:195:204:230:30:111:21:86:134:185:115:10:63:82:97:113:179:218:84:151:167:20:46:110:169:203:71:128:161:200:61:102:131:148:163:176:7:12:19:25:87:95:114:172:3:34:107:112:152:189:201:207:208:209:222:108:133:170:183:198:199:210 [2012:2013]
tree_sizes=3695 5456 1782 3700 1783 1813 3735 3720 5501 7397 1781 1823 1800 7173 5500 3721 1817 7480 7397 9094 1808 3647 3717 7297 1803 3734 3735 7335 3588 7508 5465 7365 7367 3646 1815 1822 5611 7428 5498 5442 5466 1722 9138 7007 10863 3591 1768 7235 5512 1824

Tree=0
num_leaves=15
num_cat=1
split_feature=0 1 2 63 77 2 35 0 47 2 47 63 50 1
split_gain=61104.9 8596.57 6594.83 5347.3 2094.3 1200.69 1180.62 1313.36 1063.97 697.934 520.203 511.852 472.881 426.951
threshold=1.0000000180025095e-35 1.0000000180025095e-35 0.071343742500000015 1.0000000180025095e-35 0 0.14255828500000003 115.50000000000001 1.5000000000000002 0.35565000000000008 0.044482498000000002 0.013550000000000001 1.0000000180025095e-35 0.34098897 0.017256268500000001
decision_type=2 2 2 2 9 2 2 2 8 2 10 2 8 2
left_child=3 -2 4 -1 -3 11 7 8 12 -8 -5 -4 -6 -9
right_child=1 2 5 10 6 -7 9 13 -10 -11 -12 -13 -14 -15
leaf_value=-0.076235213132524501 0.087493425372671074 -0.020201112621551845 0.036928827986251737 -0.042831204157417709 -0.0050837493866063973 0.056136399626810031 -0.0037031831330177774 0.08742765637645547 0.044935576670234179 0.015224896801908141 -0.021077971404621778 0.015453600170412567 0.08600026594846602 0.0378574981939446
leaf_weight=14321.718081464898 3992.4217390054764 4457.9644805496409 11322.157694889996 4356.0499854949321 3641.2955839145179 6129.241726917051 8299.3623639558209 362.65160617977381 1202.1095353618148 6769.4633560753027 4076.0890822648107 2617.3776713151165 112.26426176424138 4050.4171289866572
leaf_count=886176 12146 176791 241704 211803 135857 87717 300319 1071 21881 197428 167109 74041 408 87085
internal_value=0 0.0257635 0.0207297 -0.059961 0.00734832 0.0399958 0.0123776 0.0245783 0.00911767 0.00479951 -0.0323175 0.0328974 -0.00235277 0.0419368
internal_weight=0 52956.7 48964.3 22753.9 28895.5 20068.8 24437.6 9368.74 4955.67 15068.8 8432.14 13939.5 3753.56 4413.07
internal_count=2601536 1336448 1324302 1265088 920840 403462 744049 246302 158146 497747 378912 315745 136265 88156
cat_boundaries=0 868
cat_threshold=0 0 0 0 0 0 0 0 0 0 0 0 0 0 0 0 0 0 0 0 0 0 0 0 0 0 0 0 0 0 0 0 0 0 0 0 0 0 0 0 0 0 0 0 0 0 0 0 0 0 0 0 0 0 0 0 0 0 0 0 0 0 0 0 0 0 0 0 0 0 0 0 0 0 0 0 0 0 0 0 0 0 0 0 0 0 0 0 0 4194304 0 0 0 0 0 0 0 0 0 0 0 0 0 0 0 0 0 0 0 0 0 0 0 0 0 0 0 0 0 0 0 0 0 0 0 0 0 0 0 0 0 0 0 0 0 0 0 0 0 0 1073741824 0 262144 0 0 0 0 0 0 0 0 0 0 0 0 0 0 0 0 0 8388608 0 0 0 0 0 0 0 0 0 0 0 0 0 0 0 0 0 0 0 0 0 0 65536 0 0 0 0 0 0 0 0 0 0 0 0 0 0 0 0 0 0 0 0 0 0 0 0 0 0 0 0 0 0 0 0 0 0 0 0 0 0 0 0 0 0 0 0 0 0 0 0 0 0 0 0 0 0 0 0 0 0 0 0 0 0 0 0 0 0 0 0 0 0 0 0 1 0 0 0 0 0 0 0 0 0 0 0 0 0 0 0 0 0 0 0 0 0 0 0 0 0 0 0 0 131072 0 0 0 0 0 0 0 67108864 0 0 0 0 0 0 0 0 2147483648 0 0 0 0 0 0 0 0 0 0 0 0 0 0 0 0 0 0 0 0 128 0 16777216 0 0 0 0 0 0 0 0 0 0 0 0 0 0 0 0 0 0 0 0 0 0 0 0 0 0 0 0 0 0 0 0 0 0 0 0 0 0 0 0 0 0 0 0 0 8192 0 0 0 0 0 0 0 0 0 0 0 0 0 0 0 0 0 16 0 0 0 0 0 0 0 0 0 0 0 0 0 0 0 0 0 0 0 0 0 0 0 0 0 0 0 0 0 0 0 0 0 0 0 0 0 0 0 0 0 0 0 0 0 0 0 0 0 0 0 0 0 0 0 0 0 0 0 0 0 0 0 0 0 0 0 0 0 0 0 0 0 0 0 0 0 0 0 0 0 0 0 0 0 0 0 0 2048 0 0 0 0 0 128 0 0 0 0 0 0 0 0 0 0 0 0 1073741824 0 0 0 0 0 0 0 0 0 0 0 0 0 0 0 0 0 0 0 0 0 0 0 0 0 0 0 0 0 0 0 0 0 0 0 0 0 0 0 0 0 0 0 0 0 0 0 0 0 0 0 0 0 0 0 131072 0 0 0 0 0 0 0 0 0 0 0 0 0 0 0 0 0 0 0 0 0 0 0 0 0 0 0 0 0 0 0 0 4194304 0 512 0 0 0 0 0 0 0 0 0 0 0 0 0 0 0 0 0 0 0 0 0 0 0 0 4 0 256 0 0 0 0 0 67108864 0 0 0 0 0 0 0 0 0 0 0 0 0 0 0 0 0 0 0 0 0 0 0 0 0 0 0 0 0 33554432 1024 0 0 0 0 0 0 0 0 0 0 0 0 0 0 1 0 0 0 0 0 0 0 0 0 0 0 0 0 0 0 32768 0 0 0 0 0 0 0 0 0 0 0 0 0 0 0 0 0 0 0 0 0 0 0 0 0 0 0 0 0 0 0 0 0 0 0 0 0 0 0 0 0 0 16384 0 0 0 0 0 0 0 0 0 0 0 0 0 0 0 0 0 0 0 0 0 0 0 0 0 0 0 0 0 0 0 0 0 0 0 0 0 0 0 0 0 0 0 0 268435456 0 0 0 0 0 0 0 0 0 0 0 0 0 0 0 0 0 0 0 0 0 0 0 0 0 0 0 0 0 0 0 0 0 0 0 0 0 0 0 0 0 2097152 524288 0 0 0 0 0 0 0 0 0 0 0 0 0 0 0 0 0 0 0 0 0 0 0 8 0 0 0 0 0 0 0 0 0 0 0 0 0 0 0 0 0 0 0 0 0 0 0 0 0 0 0 0 67108864
is_linear=0
shrinkage=0.04375


Tree=1
num_leaves=15
num_cat=2
split_feature=0 1 29 63 36 47 49 36 0 63 47 77 36 77
split_gain=67164.5 45221.9 10141.6 9072.53 4484.87 4112.82 2833.68 2803.21 2275.27 1683.31 1513.26 1378.65 1264.6 1244.88
threshold=1.0000000180025095e-35 1.0000000180025095e-35 11.001773000000002 1.0000000180025095e-35 159.00500000000002 0.13145000000000004 0.117275 158.70500000000001 2.5000000000000004 1.0000000180025095e-35 0.30465000000000003 0 279.00500000000005 1
decision_type=2 2 10 2 8 8 8 8 2 2 8 9 8 9
left_child=3 -2 7 -1 5 8 11 9 13 10 -3 -7 -6 -4
right_child=1 2 4 -5 12 6 -8 -9 -10 -11 -12 -13 -14 -15
leaf_value=-0.051383178910365354 0.06297287321811379 0.018509884158130423 -0.042546933886567148 -0.020619983759555323 -0.0078770750334804188 -0.033239972552268703 0.0027885134825221206 0.0040660935037536289 0.0039921325820596043 0.0037675853205344939 0.034532908027545182 0.023933743655068 -0.021817202094852276 -0.0089820996573463478
leaf_weight=23871.335664608545 15485.797811470926 26242.092558311066 1285.3732514732983 19236.998091225978 28602.991079941159 477.19752086699009 19359.278189291479 18591.471442158101 21668.082302871277 6281.8193067018874 8729.6412432873622 14486.520311174681 9678.3221164023271 24267.704964659759
leaf_count=886176 12146 112674 20171 378912 279320 5336 149764 111069 165054 34304 23957 69128 115344 238181
internal_value=0 0.0083178 0.00360698 -0.0376555 -0.0019897 0.00242875 0.0112094 0.0148131 -0.00395343 0.0196562 0.0225099 0.0221034 -0.0114017 -0.0106912
internal_weight=0 195156 179670 43108.3 119825 81544.2 34323 59845 47221.2 41253.6 34971.7 14963.7 38281.3 25553.1
internal_count=2601536 1336448 1324302 1265088 1042298 647634 224228 282004 423406 170935 136631 74464 394664 258352
cat_boundaries=0 818 1686
cat_threshold=0 0 0 0 0 0 0 0 0 0 0 0 0 0 0 0 0 0 0 0 0 0 0 0 0 0 0 0 0 0 0 0 0 0 0 0 0 0 0 0 16 0 0 0 0 0 0 0 0 0 0 0 0 0 0 0 0 0 0 0 0 0 0 0 0 0 0 0 0 0 0 0 0 128 0 0 0 0 0 0 0 0 0 0 0 0 0 0 0 0 0 0 0 0 0 0 0 0 0 0 0 0 0 0 0 0 0 0 0 0 0 1073741824 0 0 0 0 0 0 0 0 0 0 0 0 0 0 512 0 0 0 0 0 0 0 0 0 0 0 0 0 0 0 0 0 0 0 0 0 0 0 0 0 0 0 0 0 0 0 0 0 0 0 4194304 0 1024 0 0 0 0 0 16777216 0 0 0 0 0 0 0 0 0 0 0 0 0 0 0 0 0 0 16777216 0 0 0 0 0 0 0 0 0 0 0 0 0 0 0 0 8388608 0 0 0 0 0 0 0 524288 0 0 0 0 0 0 0 0 0 0 0 0 0 0 0 0 0 0 0 0 0 0 0 0 0 0 0 0 0 0 0 0 0 0 0 0 0 0 0 0 0 0 0 0 0 0 0 0 0 0 0 0 0 0 0 0 0 0 0 0 0 0 0 0 0 0 0 0 0 0 0 0 0 0 0 0 0 0 0 0 0 0 0 0 0 0 0 0 0 0 0 0 0 0 0 0 0 0 0 0 0 0 0 0 0 0 0 0 0 0 0 0 0 4198400 0 0 0 0 0 2147483648 0 0 0 0 0 0 0 0 0 0 0 0 0 0 0 0 0 0 0 0 0 128 0 0 0 0 0 0 0 0 0 0 0 0 0 0 0 0 0 0 0 0 0 0 0 0 0 0 0 0 0 0 0 134217728 0 0 0 0 4096 0 0 0 0 1 0 0 0 0 0 0 0 0 0 0 0 0 0 0 0 0 0 0 0 0 0 0 0 0 0 0 0 0 0 0 0 0 0 0 0 0 0 0 0 0 32 0 0 0 0 0 0 0 0 0 0 0 0 0 0 0 0 0 0 0 0 0 0 0 0 0 0 0 0 0 0 0 0 0 0 0 0 0 0 0 0 0 0 0 0 0 0 0 0 0 0 0 0 0 0 0 64 65536 0 0 0 0 0 0 0 0 0 0 0 0 0 0 0 0 0 0 0 0 0 0 0 0 0 0 0 0 0 0 0 0 0 0 0 0 0 0 0 0 0 0 0 0 0 0 0 0 0 0 0 0 0 2097152 0 0 0 0 0 16 0 0 0 0 0 0 0 0 0 0 0 0 0 0 0 0 0 0 0 0 0 0 0 0 0 0 0 0 0 0 0 0 0 0 0 0 0 0 0 0 0 0 0 0 0 0 0 0 0 0 0 0 0 0 0 0 0 0 0 0 0 0 0 0 32 0 0 0 0 0 0 0 0 0 0 0 0 0 0 0 0 0 0 0 0 0 0 0 0 0 0 0 0 0 2097152 0 0 0 0 0 0 0 0 0 0 0 0 0 0 0 0 0 0 0 0 0 0 0 0 0 0 0 0 0 0 0 0 0 0 0 0 0 0 0 0 0 268435456 0 0 0 0 0 0 0 0 0 0 0 0 16842752 0 0 0 0 0 0 0 0 0 0 0 256 0 0 0 0 0 0 0 0 0 0 0 0 0 0 0 0 0 0 0 0 0 0 0 0 0 0 0 0 0 0 0 0 0 0 0 0 0 0 0 0 0 0 0 0 0 0 0 0 0 0 0 0 0 0 0 0 0 0 0 0 0 0 0 0 0 0 0 0 0 0 0 0 0 0 0 0 0 0 0 0 0 0 0 0 0 0 0 0 0 0 0 0 0 0 2097152 0 0 0 268435456 0 4096 0 0 0 0 0 0 0 0 0 0 0 0 0 0 128 0 0 0 0 0 0 0 0 0 0 0 0 0 0 0 0 0 0 0 0 0 0 0 0 0 0 0 0 0 0 0 0 0 0 0 0 0 0 0 0 0 0 0 0 0 0 0 0 0 0 0 0 0 0 0 0 0 0 0 0 0 0 0 0 0 0 0 0 0 0 0 0 0 0 0 0 0 0 0 0 0 0 0 0 0 0 0 0 0 0 0 0 0 0 0 0 0 0 0 0 0 0 0 0 0 0 0 0 0 0 0 0 0 0 0 0 0 0 0 0 0 0 0 0 0 0 0 0 0 0 0 4096 0 0 0 0 0 0 0 0 0 0 0 0 0 0 0 0 0 0 0 0 0 0 0 0 0 0 0 0 0 0 0 0 0 0 0 0 0 0 0 0 0 0 0 0 0 0 0 0 0 0 0 0 0 0 0 0 0 0 0 0 0 4 0 0 0 0 0 0 16 0 0 0 0 0 0 0 0 16384 0 0 0 0 0 0 0 0 0 0 0 0 0 0 0 0 0 0 0 0 0 1073741824 0 67108864 0 0 0 0 0 1 0 0 0 0 0 0 0 0 0 0 0 0 0 0 0 0 0 0 0 0 0 0 0 0 0 0 0 0 0 0 0 0 0 0 0 16384 0 0 0 0 0 0 0 0 0 0 0 0 0 0 0 0 0 0 8388608 67108864 0 0 0 0 0 0 0 0 0 0 0 0 16777216 0 0 0 0 0 0 0 0 0 0 0 0 0 0 0 0 0 0 0 0 0 0 0 0 0 0 0 0 0 0 0 0 0 0 0 0 0 0 0 0 0 0 0 0 0 0 0 0 0 0 0 0 0 0 0 0 0 0 0 0 0 0 0 0 0 0 0 0 0 0 0 0 0 0 0 0 0 0 0 0 0 0 0 0 0 0 0 0 0 0 0 0 0 0 0 0 0 0 0 0 0 0 0 0 0 0 0 0 0 0 0 0 0 0 0 0 0 0 0 0 0 0 0 0 0 0 0 0 0 0 0 0 8192 0 0 0 0 0 0 0 0 0 16777216 0 0 0 0 0 0 0 0 0 0 0 0 0 0 0 0 0 0 0 0 0 0 0 0 256 0 0 2097152 0 0 0 0 0 0 0 0 0 0 0 0 0 0 0 0 0 0 0 0 0 0 0 0 0 0 0 0 0 67108864 0 0 0 0 0 0 8388608 0 0 0 0 0 0 0 0 0 0 0 0 0 0 0 0 0 134217728 0 2048 0 0 0 0 0 0 0 0 0 0 0 0 0 0 0 0 0 0 0 0 0 0 0 0 0 0 0 0 0 0 0 0 0 0 0 0 0 0 0 0 0 0 0 0 0 67108864 32768 0 0 0 0 0 0 0 0 0 0 0 0 4 0 0 0 0 0 0 0 0 0 0 0 0 0 0 0 0 0 0 0 0 0 0 0 0 4194304 0 0 0 0 0 0 0 0 0 0 0 0 0 1024 0 0 0 0 0 0 0 0 0 0 0 0 0 0 0 0 0 0 0 0 0 0 0 0 0 0 0 0 0 0 0 0 0 0 0 0 0 131072 0 0 0 0 0 0 0 0 0 0 0 0 0 0 0 0 0 0 0 0 0 0 0 0 0 0 0 0 0 0 0 0 0 0 0 0 0 0 0 0 0 0 0 0 0 0 0 0 0 0 0 0 0 0 0 0 0 0 0 0 0 0 16777216 0 0 0 0 0 0 0 0 0 0 0 0 0 0 0 0 0 0 0 0 0 0 0 0 0 0 0 0 0 0 0 0 0 0 0 0 0 0 0 0 0 0 0 0 0 0 0 0 0 0 0 8388608 0 0 0 0 0 0 0 0 524288 0 0 0 0 0 0 0 0 0 16777216 0 0 0 0 0 0 0 0 0 0 0 0 0 0 0 0 0 0 0 0 0 0 0 0 0 0 0 0 0 0 0 0 0 0 0 0 0 0 0 0 0 0 67108864
is_linear=0
shrinkage=0.0333333


Tree=2
num_leaves=15
num_cat=0
split_feature=0 1 2 63 35 0 46 1 35 47 36 47 0 29
split_gain=55494.5 34084.5 8200.76 6422.63 4281.64 2699.37 2709.18 2384.13 2246.34 2243.7 2191.09 1709.64 1525.24 1353.74
threshold=1.0000000180025095e-35 1.0000000180025095e-35 0.09981203000000001 1.0000000180025095e-35 68.500000000000014 1.5000000000000002 inf 0.029131008500000003 34.500000000000007 0.10785000000000002 208.00500000000002 0.75440000000000007 2.5000000000000004 19.002370000000003
decision_type=2 2 2 2 2 2 8 2 2 8 8 8 2 10
left_child=3 -2 4 -1 5 6 11 -7 -9 -4 13 -3 -10 -6
right_child=1 2 9 -5 10 7 -8 8 12 -11 -12 -13 -14 -15
leaf_value=-0.063405405440054408 0.07811236693659683 -0.012729687521961576 0.0068669064257075463 -0.027939508149314729 0.0015517364661004132 0.084386843847544246 0.081852891152674134 0.055790837669487288 -0.0094846850349997753 0.026548523381166499 -0.01910248340306938 0.028673500315352804 0.029816201776935176 -0.011247523498259219
leaf_weight=21242.932702900143 13134.611113503575 9342.1975948269246 16768.865191716468 18104.70024859719 53026.909988512867 1366.0990277007222 743.20383577048779 2881.9407371883281 3735.9822635645978 32726.365181056783 18396.718719837139 2398.8953095697798 3824.7428610408679 22539.403785282862
leaf_count=886176 12146 106692 86916 378912 437378 1324 672 8303 28476 116832 246373 8028 16771 266537
internal_value=0 0.0102428 0.0049286 -0.0470872 -0.00132943 0.0150427 0.000858217 0.0300375 0.0229253 0.0198807 -0.00556236 -0.00426926 0.0103956 -0.00226584
internal_weight=0 180886 167751 39347.6 118256 24293.1 12484.3 11808.8 10442.7 49495.2 93963 11741.1 7560.73 75566.3
internal_count=2601536 1336448 1324302 1265088 1120554 170266 115392 54874 53550 203748 950288 114720 45247 703915
is_linear=0
shrinkage=0.04375


Tree=3
num_leaves=15
num_cat=1
split_feature=0 1 35 63 2 0 47 1 35 77 50 50 36 1
split_gain=47296.6 28138.3 6859.34 5026.71 4018.46 3884.35 2518.07 2379.87 2718.08 1675.13 1590.78 1333.42 1209.35 1136.09
threshold=1.0000000180025095e-35 1.0000000180025095e-35 77.500000000000014 1.0000000180025095e-35 0.062572505000000014 1.5000000000000002 0.48375000000000007 0.025664549500000005 23.500000000000004 0 inf 0.0027298970000000007 129.00500000000002 0.10268392200000002
decision_type=2 2 2 2 2 2 8 2 2 9 8 10 8 2
left_child=3 -2 5 -1 9 6 10 -7 -9 -4 11 -3 -11 -6
right_child=1 2 4 -5 13 7 -8 8 -10 12 -12 -13 -14 -15
leaf_value=-0.057149020822893401 0.070834363226293148 -0.041178653974993096 -0.028178741192488449 -0.026344464478700907 0.0037415032652007236 0.076357696119541824 0.025396839817917842 0.044339244636696848 0.016094197066575132 0.00019405431926051791 0.073312433059890936 -0.0042948584553015277 -0.01303057565958014 0.019344900443976111
leaf_weight=19695.027443449857 11963.657266788185 1977.0676912422059 7160.8831653158413 17256.762107301154 39643.020197376725 1502.995348982513 5785.435535449069 7735.9848638568074 25136.948887827806 23419.46215435653 414.93672623485327 12214.5700445947 24628.078680107079 10182.588805270381
leaf_count=886176 12146 25374 119970 378912 276477 1344 20546 19316 122642 243806 423 123606 334072 36726
internal_value=0 0.00919972 0.00458527 -0.0427635 -0.00164824 0.01654 0.00213225 0.0250865 0.0227416 -0.00939071 -0.00708214 -0.00943431 -0.00658307 0.00693052
internal_weight=0 171766 159802 36951.8 105034 54767.9 20392 34375.9 32872.9 55208.4 14606.6 14191.6 48047.5 49825.6
internal_count=2601536 1336448 1324302 1265088 1011051 313251 169949 143302 141958 697848 149403 148980 577878 313203
cat_boundaries=0 868
cat_threshold=0 0 0 0 0 0 0 0 0 0 0 0 0 0 0 0 0 0 0 0 0 0 0 0 0 0 0 0 0 0 0 0 0 0 0 0 0 0 0 0 0 0 0 0 0 0 0 0 0 0 0 0 0 0 0 0 0 0 0 0 0 0 0 0 0 0 0 0 0 0 0 0 0 0 0 0 2147483648 0 0 0 0 0 0 0 0 0 0 0 0 4194304 0 0 1048576 0 0 0 8388608 0 0 0 0 0 0 0 0 0 0 0 0 0 0 0 0 0 0 0 0 0 0 0 0 0 0 0 0 0 0 0 0 0 0 0 0 0 0 0 4194304 0 0 0 1073741824 0 262144 0 0 0 0 0 0 0 0 0 0 0 0 0 0 0 0 0 8388608 0 0 0 0 0 0 0 0 0 0 0 0 0 0 0 0 0 0 0 0 0 0 65536 0 0 0 0 0 0 0 0 0 0 0 0 0 0 0 0 0 0 0 0 0 0 0 0 0 0 0 0 0 0 524288 0 0 16 0 0 0 0 0 0 0 0 0 0 0 0 0 0 0 0 0 0 0 0 0 0 0 0 0 0 0 0 0 0 0 0 0 0 0 0 0 0 1 0 0 0 0 0 0 0 0 0 0 0 0 0 0 0 0 0 0 0 0 0 0 0 0 0 0 0 0 131072 0 0 0 0 0 0 0 0 0 0 0 0 0 0 0 0 0 0 0 0 0 0 0 0 0 0 0 0 0 0 0 0 0 0 0 0 0 128 0 16777216 0 0 0 0 0 0 0 0 0 0 0 0 0 0 0 0 0 0 0 0 0 0 0 32 0 0 0 0 0 0 0 0 0 0 0 0 0 0 0 0 0 0 0 0 0 0 0 0 0 0 0 0 0 0 0 0 0 0 0 0 0 0 0 0 0 0 0 0 0 0 0 0 0 0 0 0 0 64 0 0 0 0 0 0 0 0 0 0 0 0 0 0 0 0 0 0 0 0 0 0 0 0 0 0 0 0 0 0 0 0 0 0 0 0 0 0 0 0 0 0 0 0 0 0 0 0 0 0 0 0 0 0 0 0 0 0 0 0 0 0 0 0 0 0 0 0 0 0 0 0 0 0 0 0 0 0 0 0 128 0 0 0 0 0 0 0 0 0 0 0 0 1073741824 0 0 0 0 0 0 0 0 0 0 0 0 0 0 0 0 0 0 0 0 0 0 16384 0 0 0 0 4194304 0 0 0 0 0 0 0 0 0 0 0 0 0 0 0 0 0 0 0 0 0 0 0 0 0 0 0 0 0 0 0 0 0 0 0 0 0 0 0 2147483648 0 0 0 0 0 0 0 0 0 0 0 0 0 0 0 0 0 0 0 0 0 0 512 0 0 0 0 0 0 0 0 0 0 0 0 0 0 0 0 0 0 0 0 0 0 0 0 0 0 0 0 0 0 0 0 0 0 0 0 0 0 0 0 0 0 0 0 0 0 0 0 0 0 0 0 0 0 0 0 0 0 0 0 0 0 0 1024 0 0 0 0 0 0 0 0 0 0 0 0 0 0 0 64 0 0 0 0 0 0 0 0 0 0 0 0 0 0 0 0 0 0 0 0 0 0 4194304 0 0 0 0 0 0 0 0 0 0 0 0 0 0 0 0 0 0 0 0 0 0 0 0 0 0 0 0 0 0 0 0 0 0 16384 0 0 0 0 0 0 0 0 0 0 0 0 0 0 0 0 0 0 0 0 0 0 0 0 0 0 0 8 0 0 0 0 0 0 0 0 0 0 0 0 0 0 0 0 268435456 0 0 0 0 0 0 0 0 0 0 0 0 0 0 0 0 0 0 0 0 0 0 0 0 0 0 0 0 0 0 0 0 0 0 0 0 0 0 0 0 0 0 524288 0 0 0 0 0 0 0 0 0 2097152 0 0 0 0 0 0 0 0 0 0 0 0 0 0 0 0 0 0 0 0 0 0 0 0 0 0 0 0 0 0 0 0 0 0 0 0 0 0 0 0 0 0 67108864
is_linear=0
shrinkage=0.0416667


Tree=4
num_leaves=15
num_cat=0
split_feature=0 1 35 63 2 0 1 35 46 15 35 0 1 47
split_gain=40812.3 24145.1 6131.06 4152.48 3244.69 2649.55 1932.19 1785.41 1690.92 1549.49 1451.96 1451.93 2351.78 1376.94
threshold=1.0000000180025095e-35 1.0000000180025095e-35 58.500000000000007 1.0000000180025095e-35 0.056207247000000009 1.5000000000000002 0.034455990000000013 13.500000000000002 inf inf 187.50000000000003 1.5000000000000002 0.016161682000000004 1.0000000180025095e-35
decision_type=2 2 2 2 2 2 2 2 8 8 2 2 2 10
left_child=3 -2 5 -1 10 8 -7 -8 13 -6 11 -4 -13 -3
right_child=1 2 4 -5 9 6 7 -9 -10 -11 -12 12 -14 -15
leaf_value=-0.028974706704793962 0.036189966022340044 0.014164718460071807 -0.0066248276900859673 -0.013661869414395931 0.00047073057130734002 0.039483089483406994 0.027260256416884333 0.010179418626286678 0.037879047632760912 0.0077095716596601973 -0.0079737493855364522 0.02794415198160824 0.0007080071226051298 -0.0026716723599886655
leaf_weight=18550.533293108223 11164.963802024722 3046.3453821185976 10167.454193350452 16549.004437753349 41041.783710638061 1421.7225069478154 3569.3183843474835 19722.914173001423 637.93184965103865 22668.34298701887 27269.013682388118 1830.9726858454524 10797.89227054629 11281.245940506109
leaf_count=886176 12146 9129 141056 378912 290266 1353 6995 83867 672 142214 412471 9678 108561 118040
internal_value=0 0.00463856 0.00234289 -0.0217551 -0.00028023 0.00986439 0.0143329 0.0127973 0.00248467 0.00304643 -0.00451362 -0.000374372 0.00465752 0.000907934
internal_weight=0 164620 153455 35099.5 113775 39679.5 24714 23292.2 14965.5 63710.1 50065.3 22796.3 12628.9 14327.6
internal_count=2601536 1336448 1324302 1265088 1104246 220056 92215 90862 127841 432480 671766 259295 118239 127169
is_linear=0
shrinkage=0.0222222


Tree=5
num_leaves=15
num_cat=0
split_feature=0 1 29 63 63 47 28 0 35 35 1 2 47 35
split_gain=35138 21245.2 5498.62 3556.91 2857.05 2691.47 2712.31 1949.57 1732.7 1626.96 1642.39 863.725 824.135 799.586
threshold=1.0000000180025095e-35 1.0000000180025095e-35 9.2576035000000001 1.0000000180025095e-35 1.0000000180025095e-35 0.21555000000000005 8.5615737500000026 1.5000000000000002 30.500000000000004 143.50000000000003 0.014345492500000003 0.16720430500000003 0.046050000000000008 47.500000000000007
decision_type=2 2 10 2 2 8 8 2 2 2 2 2 10 2
left_child=3 -2 8 -1 5 7 -7 -4 -3 10 -9 -10 -5 -12
right_child=1 2 4 12 -6 6 -8 9 11 -11 13 -13 -14 -15
leaf_value=-0.035517267974839721 0.044813738095410727 0.022439553146006888 -0.011048093206284887 -0.021608685482902689 -0.0093631959337728814 0.0012038906264092387 0.018933612009392087 0.05182816795181501 0.0058060031046311489 -0.0034698941064467016 0.015530695014995103 0.017833772013010823 -0.0079482065738451634 0.0024593695928652572
leaf_weight=17529.598011035821 10521.757704518735 10008.296805453254 13476.87952103978 10352.064355106384 22944.90334630807 15640.789355481567 12815.593913370045 653.68492999300361 21277.770338746835 25998.523925699876 5138.3876729994081 6322.9799810536206 5534.5522350485553 14896.523263590178
leaf_count=886176 12146 35787 207824 266525 276075 156798 63238 697 130530 299667 20949 20262 112387 112475
internal_value=0 0.00557503 0.0028073 -0.026643 -0.000377535 0.00194891 0.00918891 -0.00147539 0.0122551 0.00128782 0.0072669 0.00856173 -0.0168502 0.0058122
internal_weight=0 159696 149174 33416.2 111565 88620.4 28456.4 60164 37609 46687.1 20688.6 27600.8 15886.6 20034.9
internal_count=2601536 1336448 1324302 1265088 1137723 861648 220036 641612 186579 433788 134121 150792 378912 133424
is_linear=0
shrinkage=0.0285714


Tree=6
num_leaves=15
num_cat=1
split_feature=0 1 2 63 35 2 47 0 1 63 49 47 77 35
split_gain=30902.5 18933.4 5174.94 3069.07 3006.03 1847.83 1840.61 1481.61 1707.04 1332.09 1184.51 1089.48 1043.09 1023.82
threshold=1.0000000180025095e-35 1.0000000180025095e-35 0.11091888000000001 1.0000000180025095e-35 121.50000000000001 0.044482498000000002 0.12805000000000002 1.5000000000000002 0.016403791500000004 1.0000000180025095e-35 0.12652500000000003 0.19555000000000003 0 40.500000000000007
decision_type=2 2 2 2 2 2 8 2 2 2 8 8 9 2
left_child=3 -2 4 -1 6 12 7 -3 -9 11 -8 -4 -6 -10
right_child=1 2 9 -5 5 -7 10 8 13 -11 -12 -13 -14 -15
leaf_value=-0.049660686276210758 0.063203149951489235 -0.014315641794738385 0.013910250377259237 -0.023745281909598973 -0.032716775655721703 -0.00098919733693184379 0.028433816392183339 0.071914365981833747 0.02825357437619893 0.00012186105976581388 0.0083032534708147084 0.029822130748554658 -0.01120553159167113 -0.00060436619671892398
leaf_weight=16776.58007593418 9969.8748621810228 8501.0766055127606 16611.788220160175 15055.673756959441 4919.834549000574 39691.702665404766 8602.1772293592803 678.69529317319393 2577.7440714291297 6386.9437689469196 12379.13211667526 13581.127982450183 19236.249488282017 12401.566214022459
leaf_count=886176 12146 138160 79991 378912 103245 382644 38415 677 9575 37444 91741 44297 297757 100356
internal_value=0 0.00765511 0.00385051 -0.037404 -0.000700767 -0.00651926 0.00752887 -0.000311667 0.00729095 0.017411 0.0165572 0.021068 -0.0156055 0.00436146
internal_weight=0 155538 145568 31832.3 108988 63847.8 45140.4 24159.1 15658 36579.9 20981.3 30192.9 24156.1 14979.3
internal_count=2601536 1336448 1324302 1265088 1162570 783646 378924 248768 110608 161732 130156 124288 401002 109931
cat_boundaries=0 876
cat_threshold=0 0 0 0 0 0 0 0 0 0 0 0 0 0 0 0 0 0 0 0 0 0 0 0 0 0 0 0 0 0 0 0 0 0 0 0 0 0 0 0 67108864 0 0 0 0 0 0 0 0 0 0 0 0 0 0 0 0 0 0 0 0 0 0 0 0 0 0 0 0 0 0 0 0 0 0 0 0 0 0 0 0 0 0 0 0 0 0 0 0 0 0 0 1048576 0 0 0 0 0 0 0 0 0 0 0 0 0 0 0 0 0 0 0 0 0 0 0 0 0 0 0 0 0 0 0 0 0 8192 0 0 0 0 0 0 0 0 32768 0 0 0 0 0 0 262144 0 0 0 0 0 0 0 0 0 0 0 0 0 0 0 0 0 8388608 0 0 0 0 0 0 0 0 0 0 0 0 0 0 0 0 0 0 0 0 0 0 0 0 0 0 0 0 0 0 0 0 0 0 0 0 0 0 0 0 0 0 0 0 0 0 0 0 0 0 0 0 0 0 0 0 16 0 0 0 0 0 0 0 0 0 0 0 0 0 0 0 0 0 0 0 0 0 0 0 0 0 0 0 0 0 0 0 0 0 0 0 0 0 0 1 0 0 0 0 0 0 0 0 0 0 0 0 0 0 0 0 0 0 0 0 0 0 0 0 0 0 0 0 0 0 0 0 0 0 0 16384 0 0 0 0 0 0 0 0 0 0 0 0 0 0 0 0 0 0 0 0 0 0 0 0 0 0 0 0 0 0 0 0 16777216 16384 0 0 0 0 0 0 0 0 0 0 0 0 0 0 0 0 0 0 0 0 0 0 0 0 0 0 8 0 0 0 0 0 0 0 0 0 0 0 0 0 0 0 0 0 0 0 0 0 0 0 0 0 0 0 0 0 0 0 0 0 0 0 16 0 0 0 0 0 0 0 0 0 0 0 0 0 0 0 0 0 0 0 0 0 0 0 0 0 0 0 0 0 0 0 0 0 0 0 0 0 0 0 0 0 0 0 0 0 0 0 0 0 0 0 0 0 0 0 0 0 0 0 0 0 0 0 0 0 0 0 0 0 0 0 0 0 0 0 0 0 0 0 0 0 0 0 0 0 0 0 0 2048 0 0 0 0 0 128 0 0 0 16 0 0 0 0 0 0 0 0 0 0 0 0 0 0 0 0 0 0 0 0 0 0 0 0 0 0 0 0 0 0 0 0 0 0 0 67108864 0 67108864 0 0 0 0 0 0 0 0 0 0 0 0 0 2147483648 0 0 0 0 0 0 0 0 0 0 0 0 0 0 0 0 0 0 0 0 0 0 0 0 0 0 0 0 0 0 0 0 0 0 0 0 0 0 0 0 0 0 0 0 0 4194304 0 0 0 0 0 0 0 0 0 0 0 0 67108864 0 0 0 0 0 0 0 0 0 0 0 0 0 0 0 0 0 0 0 0 0 0 0 0 0 0 0 0 0 0 0 0 0 0 0 0 0 0 4194304 0 0 0 0 0 0 0 0 0 0 0 0 0 0 0 0 0 0 0 0 0 0 0 0 0 0 0 0 0 0 0 0 0 0 0 0 0 0 0 0 0 0 65536 0 32768 0 0 0 0 0 0 0 0 0 0 0 0 0 0 0 0 0 0 0 0 0 0 0 0 0 0 0 0 0 0 0 0 0 0 0 0 0 0 0 0 0 0 16384 0 0 0 0 0 0 0 0 0 0 0 0 0 0 0 0 0 0 0 0 0 0 0 0 0 0 0 0 0 0 0 0 0 0 0 0 0 0 0 0 0 0 0 0 268435456 0 0 0 0 0 0 0 0 0 0 0 0 0 0 0 0 0 0 0 0 0 0 0 0 0 0 0 0 0 0 0 0 0 0 0 0 0 0 0 0 0 2097152 524288 0 0 0 0 0 0 0 0 0 2097152 0 67108864 0 0 0 0 0 0 0 0 0 0 0 0 0 0 0 0 16777216 0 0 0 0 0 0 0 0 0 0 0 0 0 0 0 0 0 0 0 0 0 0 0 0 0 0 0 0 0 0 0 1024
is_linear=0
shrinkage=0.0416667


Tree=7
num_leaves=15
num_cat=1
split_feature=0 1 29 63 36 47 35 49 0 36 77 63 47 36
split_gain=36876.1 21843.7 6920.28 3815.4 2983.31 2723.2 2040.3 1807.94 1606.72 1437.4 1137.26 914.722 828.1 825.567
threshold=1.0000000180025095e-35 1.0000000180025095e-35 11.001773000000002 1.0000000180025095e-35 159.00500000000002 0.15215000000000004 30.500000000000004 0.14885000000000001 1.5000000000000002 146.00500000000002 0 1.0000000180025095e-35 0.046050000000000008 279.00500000000005
decision_type=2 2 10 2 8 8 2 8 2 8 9 2 10 8
left_child=3 -2 6 -1 5 8 -3 10 -4 -8 -7 -12 -5 -6
right_child=1 2 4 12 13 7 9 -9 -10 -11 11 -13 -14 -15
leaf_value=-0.010506837839757158 0.013176769230187584 0.0064750724124365876 -0.0034385169657532022 -0.0063009169130627081 -0.0018130876293312877 -0.0080911820903795707 0.0037767158599602557 0.00049148340862809026 0.00022785115938322095 0.00047996470108498124 0.0063163969870615108 0.00034689157625238017 -0.0023204111483803602 -0.0050058580804259794
leaf_weight=18010.889659448963 10713.601816261187 11440.754054764519 11517.122833746136 10413.899281559978 23010.228730999981 449.12266795802861 23081.809744580532 13572.918455272331 29716.523092897551 15255.677141886088 10474.239792660577 2148.9156146517489 5574.0374333542422 7444.9230818239157
leaf_count=886176 12146 43201 176961 266525 279320 6150 123212 125264 269072 115591 52899 17288 112387 115344
internal_value=0 0.0016861 0.000854897 -0.00787657 -0.000426691 0.000545542 0.00338662 0.00262193 -0.000796187 0.00246489 0.0048338 0.00529613 -0.0049133 -0.00259366
internal_weight=0 158826 148112 33998.8 98334 67878.8 49778.2 26645.2 41233.6 38337.5 13072.3 12623.2 15987.9 30455.2
internal_count=2601536 1336448 1324302 1265088 1042298 647634 282004 201601 446033 238803 76337 70187 378912 394664
cat_boundaries=0 871
cat_threshold=0 0 0 0 0 0 0 0 0 0 0 0 0 0 0 0 0 0 0 0 0 0 0 0 0 0 0 0 0 0 0 0 0 0 0 0 0 0 0 0 0 0 0 0 0 0 0 0 0 0 0 0 0 0 0 0 0 0 0 0 0 0 0 0 0 0 0 0 0 0 0 0 0 128 0 0 0 0 0 0 512 0 0 0 0 0 0 0 0 0 0 0 0 0 0 0 0 0 0 0 0 0 0 0 0 0 0 0 512 0 0 1073741824 0 0 0 0 0 0 0 0 0 0 0 0 0 0 512 0 0 0 0 0 0 0 0 0 0 0 0 0 0 0 0 0 0 0 0 0 0 0 0 0 0 0 0 0 0 0 0 0 0 32 4194304 0 1024 0 0 0 0 0 0 0 0 0 0 0 0 0 0 0 0 0 0 0 0 0 0 0 0 16777216 0 0 0 0 0 0 0 0 0 0 0 0 0 0 0 0 8388608 0 0 0 0 0 0 0 524288 0 0 0 0 0 0 0 0 0 0 0 0 0 0 0 16777216 0 0 0 0 0 0 0 0 0 0 0 0 0 0 0 0 0 0 0 0 0 0 0 0 0 0 0 0 0 0 0 0 0 0 0 0 0 0 0 0 0 0 0 0 0 0 0 0 0 0 0 0 0 0 0 0 0 0 0 0 0 0 0 0 0 0 0 0 0 0 262144 0 0 0 0 0 0 0 2048 0 0 0 0 0 0 0 0 0 0 0 0 0 128 0 0 0 0 0 0 0 0 0 0 0 0 0 0 0 0 0 0 0 0 0 0 0 0 0 0 0 0 0 0 0 0 128 0 0 0 0 0 0 0 0 0 0 0 0 0 0 0 0 0 0 0 0 0 0 0 0 0 0 0 0 0 0 0 134217728 0 0 0 0 4096 0 0 0 0 1 0 0 0 0 0 0 0 0 0 0 0 0 0 0 0 0 0 0 0 0 0 0 0 0 0 0 0 0 0 0 0 0 0 0 0 0 0 0 0 0 32 0 0 0 0 0 0 0 0 0 0 0 0 0 0 0 0 0 0 0 0 0 0 0 0 0 0 0 0 0 0 67108864 0 0 256 0 0 0 0 0 0 0 0 0 0 0 0 0 0 0 0 0 0 0 0 0 0 65536 0 0 0 0 0 0 0 0 0 0 0 0 0 0 0 0 0 0 0 0 0 0 0 0 0 0 0 0 0 0 4096 0 0 0 0 0 0 0 0 0 0 0 0 0 0 0 0 0 0 0 0 0 0 2097152 0 0 0 0 0 16 0 0 0 0 0 0 0 0 0 0 0 0 0 0 0 0 0 0 0 0 0 0 0 0 0 0 0 0 0 0 0 0 0 0 0 0 0 0 0 0 0 0 0 0 0 512 0 0 0 0 0 0 0 0 0 0 0 0 0 0 0 0 0 0 0 0 0 0 0 0 0 0 0 0 0 0 0 0 0 0 0 0 0 0 0 0 0 0 0 0 0 0 0 0 2097152 0 0 0 0 0 0 0 0 0 0 0 0 0 0 0 0 0 0 0 0 0 0 0 0 0 0 0 0 0 0 0 0 0 0 0 0 0 0 0 0 0 0 0 0 0 0 0 0 0 0 0 0 0 0 65536 0 0 0 0 0 0 0 0 0 0 0 0 0 0 0 0 0 0 0 0 0 0 0 0 0 0 0 0 0 0 0 0 0 0 0 0 0 0 0 0 0 0 0 0 0 0 0 0 0 0 0 0 0 0 0 0 0 0 0 0 0 0 0 0 0 0 0 0 0 0 0 0 0 0 0 0 0 0 0 0 0 0 0 0 2 0 0 0 0 0 0 0 0 0 0 0 0 0 0 0 0 0 0 0 0 0 0 0 0 0 268435456 0 0 0 0 0 0 0 0 0 0 0 0 0 0 0 0 0 0 0 0 0 0 0 0 0 0 0 0 0 0 0 0 0 0 0 0 0 0 0 0 0 0 0 0 0 0 0 0 0 0 0 0 16384
is_linear=0
shrinkage=0.00833333


Tree=8
num_leaves=15
num_cat=2
split_feature=0 1 29 63 15 36 47 63 36 43 0 6 77 77
split_gain=29037.7 17765.3 4768.54 2879.53 2283.38 1849.97 1361.07 1305.53 1113.06 1047.41 972.685 911.356 835.266 703.383
threshold=1.0000000180025095e-35 1.0000000180025095e-35 13.132409500000003 1.0000000180025095e-35 -1.0000000180025095e-35 140.00500000000002 0.15835000000000002 1.0000000180025095e-35 138.99500000000003 2.6750000000000003 1.5000000000000002 inf 0 1
decision_type=2 2 10 2 10 8 8 2 8 2 2 8 9 9
left_child=3 -2 4 -1 7 6 10 11 -6 12 -4 -3 -8 -12
right_child=1 2 5 -5 8 -7 9 -9 -10 -11 13 -13 -14 -15
leaf_value=-0.058314896498735648 0.074498180972001629 0.018636372527612903 -0.018775535375663004 -0.027916504861290055 0.014092929362621055 -0.013726516087520794 -0.053741929126745781 0.0013669701503990818 -0.0036101520741164553 0.0024661749891258188 -0.028714839161467123 0.038121243256633019 0.029558873754573552 0.004056073561156062
leaf_weight=16436.242931929184 9694.9301611576229 10658.91572179459 8484.7510864704382 14814.605327488913 19560.922008834546 29323.451194516907 304.98771111434326 4916.598639509175 16257.648587776232 10647.734077302797 1779.0734637689311 13743.090437103412 7742.3863351549953 19281.551418245188
leaf_count=886176 12146 60244 147050 378912 114745 411283 4153 36937 141952 99598 30512 66690 37150 173988
internal_value=0 0.00900335 0.00455355 -0.043905 0.0145274 -0.00382229 0.00219792 0.0248748 0.00605744 0.0127561 -0.00448255 0.0296108 0.0263693 0.00127536
internal_weight=0 152396 142701 31250.8 65137.2 77563.9 48240.5 29318.6 35818.6 18695.1 29545.4 24402 8047.37 21060.6
internal_count=2601536 1336448 1324302 1265088 420568 903734 492451 163871 256697 140901 351550 126934 41303 204500
cat_boundaries=0 884 1721
cat_threshold=0 0 0 0 33554432 0 0 0 0 0 0 0 0 0 0 0 0 0 0 0 0 0 0 0 0 0 0 0 0 0 0 0 0 0 0 0 0 0 0 0 0 0 0 0 0 0 0 131072 0 0 0 0 0 0 0 0 0 0 0 0 0 0 0 0 0 0 0 0 0 0 0 0 0 128 0 0 0 0 0 0 0 0 0 0 0 0 0 0 0 0 0 0 0 0 0 0 0 0 0 0 0 0 0 0 0 0 0 0 0 0 0 1073741824 0 0 0 0 0 0 0 0 0 0 0 0 0 0 0 0 0 0 0 0 0 0 0 0 0 0 0 0 0 0 0 0 0 0 0 0 0 16 0 0 0 0 0 0 0 0 0 0 0 32 0 0 0 0 8192 0 0 0 0 0 0 0 0 0 0 0 0 0 0 0 0 0 0 0 0 0 0 0 1 0 0 0 0 0 0 0 0 0 0 0 0 0 0 0 0 0 0 0 0 0 0 0 0 0 0 0 0 0 0 0 0 0 0 0 0 0 0 0 0 0 0 0 0 0 0 0 0 0 0 0 0 0 0 0 0 536870912 0 0 0 0 0 0 0 0 0 0 0 0 0 0 0 0 0 0 0 0 0 0 0 0 0 0 0 0 0 0 0 0 0 0 0 0 0 0 0 0 0 0 0 0 0 0 0 0 0 0 0 0 0 0 0 0 0 0 0 0 0 0 0 0 0 0 0 0 0 0 0 0 0 0 0 0 0 0 0 0 0 0 0 0 0 0 0 0 0 0 0 0 0 0 0 0 0 0 0 0 0 0 0 0 0 0 0 0 128 0 0 0 0 0 16384 0 0 0 0 0 0 0 64 0 0 0 0 0 0 0 0 0 0 0 0 0 0 0 0 0 134217728 0 0 0 0 4096 0 0 0 0 1 0 0 0 0 0 0 0 0 0 0 0 0 0 0 0 0 0 0 0 0 0 0 0 0 0 0 0 0 0 0 0 0 0 0 0 0 0 0 512 0 0 0 0 0 0 0 0 0 0 0 0 0 0 0 0 0 0 0 0 0 0 0 0 0 0 0 0 0 0 0 0 0 0 0 0 0 0 0 0 0 0 0 0 0 0 0 0 0 0 0 0 0 0 0 0 0 0 0 0 0 0 0 0 0 0 0 0 0 0 0 0 0 0 0 0 0 0 0 0 0 0 0 0 0 0 0 0 0 0 0 0 0 0 16384 0 0 0 0 0 0 0 0 0 0 0 0 0 0 0 0 0 0 0 0 0 0 0 0 0 0 0 0 0 0 0 0 0 0 2147483648 0 0 0 0 0 0 0 0 0 0 0 0 0 0 0 0 0 0 0 0 0 0 0 0 0 0 0 0 0 0 0 0 0 0 512 0 0 0 0 0 0 0 0 0 0 0 0 0 0 0 0 0 0 32 0 0 0 0 0 0 0 0 0 0 0 0 0 0 0 0 0 0 0 0 0 0 0 0 0 0 0 0 0 0 0 0 0 0 0 2147483648 0 0 0 0 0 0 0 0 0 0 0 0 0 0 0 0 0 0 0 0 0 0 0 0 0 0 0 0 0 256 0 0 0 0 0 0 0 0 0 0 0 4096 0 0 0 0 0 0 16842752 0 0 0 0 0 0 0 0 0 0 0 0 0 0 0 0 0 0 0 0 0 0 0 0 0 0 0 0 0 0 0 0 0 0 0 0 0 0 0 0 0 0 0 0 0 0 0 0 0 0 0 0 0 0 0 0 0 0 0 131072 0 0 0 0 0 0 0 0 0 0 0 0 0 0 0 0 0 0 0 0 0 0 0 0 0 0 0 0 0 0 0 0 0 0 0 0 0 0 0 0 0 0 0 0 0 0 0 0 0 0 268435456 0 0 0 0 0 0 0 0 0 0 0 0 0 0 0 0 0 0 0 0 0 0 0 0 0 0 0 16 0 0 0 0 0 0 0 0 0 0 0 0 0 0 0 0 0 0 0 0 0 0 0 0 0 0 0 0 0 1024 0 0 0 0 4096 0 0 2097152 0 4096 0 0 0 0 0 0 0 0 0 0 0 0 0 0 0 0 0 0 0 524288 0 0 0 0 0 0 0 0 0 0 0 0 0 0 0 0 0 0 0 0 0 0 0 0 0 0 0 0 0 0 0 0 0 0 0 0 0 0 0 0 0 0 0 0 0 0 0 0 0 0 0 0 0 0 2147483648 0 0 0 0 0 0 0 0 0 0 0 0 0 0 0 0 0 0 0 0 0 0 0 0 0 0 0 0 0 0 0 0 0 16777216 0 0 0 0 0 8 0 0 0 0 0 0 0 0 0 0 2048 0 0 0 0 0 0 0 0 0 0 0 0 0 0 0 0 0 0 0 0 4096 0 0 1073741824 0 0 0 0 0 0 0 0 0 0 0 0 0 0 0 0 0 0 0 0 0 0 0 0 0 0 0 0 0 0 0 0 0 0 0 0 0 0 0 0 0 0 0 0 0 0 0 0 0 0 0 0 0 0 0 0 0 0 0 0 0 0 0 0 0 16 0 0 0 0 0 0 0 0 0 0 0 0 0 0 0 0 0 0 0 0 0 0 0 0 0 0 0 0 0 0 0 0 128 0 0 0 0 0 1 0 0 0 0 0 0 0 0 0 0 0 0 0 0 0 0 0 0 0 512 0 0 0 0 0 0 0 0 0 0 0 0 0 0 0 0 0 0 0 0 0 0 0 0 0 0 0 0 0 0 0 0 0 0 0 0 0 0 0 0 0 0 0 0 0 0 0 0 16777216 16384 0 0 0 0 0 0 0 0 0 0 0 0 0 0 0 0 0 0 0 0 0 0 0 0 0 0 0 0 0 0 0 0 0 0 0 0 0 0 0 0 0 0 0 0 0 0 0 0 0 0 0 0 0 0 2 0 0 0 0 0 0 0 0 0 0 0 4096 0 0 0 0 0 0 0 0 0 0 0 0 0 0 0 0 0 0 0 131072 134217728 0 0 0 0 0 0 0 0 0 0 0 0 0 0 0 0 0 0 0 0 0 0 0 0 0 0 0 0 0 0 0 0 0 0 0 0 0 0 0 0 0 0 0 134217728 0 0 0 0 0 0 0 0 0 0 0 0 0 0 0 0 0 0 0 0 0 0 0 0 0 0 0 0 0 0 0 0 0 0 0 0 0 0 0 0 0 0 0 0 0 0 0 0 0 0 0 0 0 0 0 0 0 0 0 0 0 0 0 0 0 0 8388608 0 0 0 33554432 0 0 0 0 0 0 0 0 0 0 0 0 0 0 0 0 0 0 0 0 0 0 0 0 0 0 0 0 0 0 0 0 0 0 0 0 0 0 0 0 0 0 0 0 0 0 0 0 0 0 0 0 0 0 0 0 0 0 512 0 0 0 0 0 0 0 0 0 0 0 0 0 0 0 0 0 0 0 0 0 0 0 0 0 0 0 0 0 0 0 0 67108864 0 0 0 0 0 0 0 0 0 0 0 0 0 0 0 0 4194304 0 0 8388608 0 0 0 0 0 0 0 0 0 0 0 0 0 0 0 0 0 0 0 0 0 0 0 0 0 0 64 0 0 0 0 0 0 0 0 0 0 0 0 0 0 0 0 0 0 0 0 0 131072 0 0 0 0 0 0 0 0 0 0 0 0 0 0 0 0 0 0 0 0 0 0 0 0 0 0 0 0 0 0 0 0 0 0 0 16384 0 0 0 0 0 0 0 0 0 0 0 0 0 0 0 0 0 0 0 0 0 0 0 0 0 0 0 0 0 0 0 0 0 0 2097152 0 0 0 0 0 0 0 0 0 0 0 0 0 0 0 0 0 0 0 0 0 0 0 0 0 0 0 0 0 0 0 0 0 0 0 0 0 0 0 0 0 0 0 0 0 0 0 0 0 4096 0 0 524288 0 0 0 0 0 0 0 0 0 0 0 0 0 0 0 0 0 0 0 0 0 8192
is_linear=0
shrinkage=0.05


Tree=9
num_leaves=15
num_cat=3
split_feature=0 1 15 63 63 2 47 36 6 47 77 63 77 77
split_gain=25754.8 16065.7 4276.3 2544.66 2148.44 2002.79 1640.88 1448.46 908.912 837.406 819.152 775.689 918.356 752.14
threshold=1.0000000180025095e-35 1.0000000180025095e-35 -1.0000000180025095e-35 1.0000000180025095e-35 1.0000000180025095e-35 0.089311450000000014 0.093750000000000014 174.00500000000002 inf 0.05705000000000001 0 1.0000000180025095e-35 1 2
decision_type=2 2 10 2 2 2 8 8 8 8 9 2 9 9
left_child=3 -2 4 -1 6 7 -3 11 -8 -7 -11 12 -4 -9
right_child=1 2 5 -5 -6 9 8 13 -10 10 -12 -13 -14 -15
leaf_value=-0.049090974676571544 0.063409076020641192 0.0064646310343186297 -0.029339504957208353 -0.023625453724897421 -0.0049542834735417426 -0.008146137879142994 0.015362240219810501 -0.033022657521892498 0.031095891919073408 -0.05440953933600115 0.012765869938594715 -0.014848470717614973 0.0021731084985836245 -0.012089575980622578
leaf_weight=15711.099183862854 9211.2019339092076 16612.205046394432 1862.8864907813258 14394.56833002335 10101.070800382062 5094.3261302853934 13122.342855379335 4417.6751894998015 15141.178418996802 343.81750447303057 20520.569670296274 7807.9926218116016 32183.198535466217 12946.750932926545
leaf_count=886176 12146 171014 28568 378912 109636 37899 83548 91589 82143 3227 101573 102297 325807 187001
internal_value=0 0.00744064 0.00376214 -0.0369156 0.0132743 -0.00237734 0.0173776 -0.00681908 0.0237915 0.00775506 0.011638 -0.00241159 0.000440447 -0.017442
internal_weight=0 149365 140154 30105.7 54976.8 85177.2 44875.7 59218.5 28263.5 25958.7 20864.4 41854.1 34046.1 17364.4
internal_count=2601536 1336448 1324302 1265088 446341 877961 336705 735262 165691 142699 104800 456672 354375 278590
cat_boundaries=0 881 1757 2599
cat_threshold=0 0 0 0 0 0 0 0 0 0 0 0 0 0 0 0 0 0 0 0 0 0 0 0 0 0 0 0 0 0 0 0 8388608 0 0 0 0 0 0 0 0 0 0 0 0 0 0 0 0 0 0 32768 0 0 0 0 33554432 16 0 0 0 0 0 0 0 0 0 0 0 2048 0 0 0 0 0 0 0 0 0 0 0 0 0 0 0 0 0 0 0 0 0 0 0 0 0 0 0 0 0 0 0 0 0 0 0 0 0 0 0 0 0 0 0 0 0 0 0 0 0 0 0 0 0 0 0 0 0 0 0 0 0 0 0 0 0 0 0 0 0 1024 0 0 0 0 0 0 32768 0 0 0 0 1073741824 0 0 0 0 0 0 0 0 0 0 0 0 0 0 0 0 0 0 0 0 0 0 0 0 0 0 0 0 0 0 1024 0 0 0 0 0 0 0 0 0 0 0 0 0 0 0 0 0 2 0 0 0 0 0 0 0 0 0 0 0 0 0 0 0 0 0 0 0 0 0 0 0 0 0 0 0 0 0 8 0 0 0 0 0 0 0 0 0 0 0 0 0 0 0 0 0 33554432 0 0 0 262144 0 0 0 0 0 0 0 0 0 0 0 0 0 0 0 0 0 0 0 0 0 0 0 0 0 0 0 0 0 0 1073741824 0 0 0 0 0 0 0 0 0 0 16 0 0 0 0 0 0 0 0 0 0 0 0 0 0 0 1073741824 0 0 0 0 0 0 0 0 0 0 0 0 0 0 8 0 0 0 0 0 0 0 0 0 0 0 0 0 0 0 0 0 0 0 0 0 0 0 0 0 0 0 0 536870912 0 0 0 0 0 0 0 0 0 0 0 0 0 0 0 0 0 0 0 0 0 0 0 0 0 0 0 0 0 0 0 0 0 0 0 0 0 0 0 0 0 0 0 0 0 8388608 0 0 0 0 0 0 0 0 0 0 0 0 0 0 0 0 0 0 0 0 0 0 0 0 0 0 0 0 0 0 0 0 0 0 0 0 0 0 0 0 0 0 2 0 0 0 0 0 0 0 0 0 0 0 0 0 0 0 0 0 0 0 0 0 0 0 0 0 0 0 0 0 0 0 0 0 0 0 0 0 0 0 0 128 0 0 0 0 0 0 0 0 0 0 0 0 0 0 0 0 0 0 0 0 0 0 0 0 0 0 0 0 0 0 0 0 0 0 0 0 0 0 0 0 0 0 0 0 0 0 0 0 0 0 0 0 0 0 0 0 0 0 0 0 0 0 0 9216 0 0 134217728 0 0 0 16 0 0 0 0 0 0 0 0 0 0 0 0 0 0 0 0 0 0 0 0 0 0 0 0 0 0 0 0 0 0 0 0 0 0 0 0 16 0 0 0 0 0 0 0 0 0 0 0 0 0 0 0 0 0 0 0 0 0 0 0 0 0 0 0 0 0 0 0 0 0 0 0 0 0 0 0 0 0 0 0 0 0 0 0 0 0 0 0 0 0 0 0 0 0 0 0 0 0 0 0 0 0 0 0 0 0 0 0 0 0 0 0 0 0 0 0 0 0 0 0 0 0 0 0 0 0 0 0 0 0 0 0 0 0 131072 0 0 0 0 0 0 0 0 0 0 0 0 0 0 536870912 0 0 0 0 0 0 0 0 0 0 0 0 0 0 0 0 0 0 0 0 0 0 0 0 0 0 0 0 0 0 0 0 0 0 0 0 0 0 0 1 0 0 0 0 0 0 0 0 0 0 0 0 0 0 0 0 0 0 0 0 0 0 0 0 0 0 0 0 0 0 0 0 0 0 0 0 0 0 0 0 0 0 0 0 0 0 0 0 0 0 0 0 0 0 0 0 0 0 0 0 0 0 0 0 0 0 0 0 0 0 0 0 0 0 0 0 0 0 0 0 0 0 0 0 0 0 0 0 0 0 0 0 0 0 0 0 0 0 0 0 0 0 0 0 0 0 0 0 0 0 0 0 0 0 0 0 0 0 0 0 262144 0 0 0 0 0 0 0 0 0 0 0 0 0 4096 0 0 0 0 0 0 0 0 0 0 0 0 0 0 0 0 0 0 0 0 0 524288 0 0 0 0 0 0 0 0 0 0 0 0 0 0 0 0 0 0 0 0 0 0 0 0 0 0 0 0 0 0 0 0 0 0 0 0 0 0 0 0 0 0 0 0 0 0 0 0 0 0 0 16777216 0 0 2147483648 0 0 0 0 0 0 0 0 0 0 0 0 0 0 0 0 0 0 0 0 0 0 0 0 0 0 0 0 0 0 0 0 0 0 0 0 0 0 0 0 0 0 8192 0 0 0 0 0 0 0 0 0 1024 0 0 0 0 0 0 0 0 0 0 1073741824 0 0 0 0 0 0 0 0 0 0 0 0 0 0 0 0 0 0 0 0 0 0 0 0 0 0 0 0 0 0 0 0 0 0 0 0 0 0 0 0 32 0 0 0 0 0 0 0 0 0 0 0 0 0 0 0 0 0 0 0 0 0 0 0 0 8388608 0 0 0 0 0 0 0 0 0 0 0 0 0 0 0 0 0 0 0 0 0 0 0 0 0 0 0 0 0 0 0 0 0 0 0 0 0 0 0 0 0 0 0 0 0 0 0 0 0 0 0 0 0 0 0 0 0 0 0 0 0 0 0 0 0 0 0 0 0 0 0 0 0 0 0 0 0 0 0 0 0 0 0 0 0 0 0 0 0 0 0 0 0 0 0 0 0 0 0 0 0 0 0 0 0 0 0 0 0 0 0 0 0 0 0 0 128 0 0 16384 0 0 0 0 0 0 0 0 0 67108864 0 0 0 0 0 0 0 0 0 0 0 0 32 1073741824 0 0 0 0 0 0 0 0 0 0 0 0 0 0 0 0 0 0 0 0 0 0 0 0 0 0 0 0 0 0 0 0 0 0 0 0 0 0 0 0 0 0 0 0 0 0 0 0 0 0 0 0 0 0 0 0 0 0 0 0 0 0 0 0 0 0 0 0 0 0 0 0 0 0 0 0 0 0 0 0 0 0 16384 0 0 0 0 0 0 0 0 0 0 0 0 0 0 0 0 0 0 0 1024 0 0 0 0 0 0 0 0 0 0 0 0 0 0 0 0 67108864 0 0 0 0 0 0 0 0 0 0 0 0 0 0 0 0 0 0 0 0 0 0 0 0 0 0 0 0 0 0 0 0 0 0 0 0 0 0 0 0 0 0 0 0 0 32 0 0 0 0 0 0 0 0 8388608 0 0 0 0 0 0 0 8388608 0 0 0 0 0 0 0 0 0 0 0 0 0 0 0 0 0 0 0 0 0 0 0 0 0 0 0 0 0 0 0 0 0 0 0 0 0 0 0 0 0 0 0 2147483648 0 0 0 0 0 0 0 0 0 0 0 0 0 0 0 0 0 0 0 0 0 0 0 0 0 0 0 0 0 0 0 0 0 0 0 0 0 0 0 0 0 0 0 0 0 0 0 0 0 0 0 0 0 0 0 0 0 0 0 0 0 0 0 0 0 0 0 0 0 0 0 0 1048576 33554432 1024 0 0 0 0 0 0 0 0 0 0 0 0 0 0 0 64 0 0 0 0 0 0 0 0 0 0 0 0 0 0 0 0 0 0 0 0 0 0 4194304 0 0 0 0 0 0 0 0 0 0 0 0 0 0 0 0 0 0 0 0 0 0 0 0 0 0 0 0 0 0 0 0 0 0 0 0 0 0 0 0 0 0 0 0 0 0 0 0 0 0 0 0 0 0 0 0 0 0 0 0 0 16777216 8 0 0 0 0 0 0 0 0 0 0 0 0 0 0 0 0 0 0 0 0 16 0 0 0 0 0 0 0 0 0 0 0 0 0 0 0 0 0 0 0 0 0 0 0 0 16384 0 0 0 0 0 0 0 0 0 0 4096 0 0 524288 0 0 0 0 0 0 0 0 0 0 0 0 0 0 0 0 0 0 0 0 0 0 0 0 0 0 0 0 0 0 0 0 0 0 0 0 0 0 0 0 0 0 0 0 0 0 0 0 0 0 0 0 0 0 0 0 0 0 0 0 1024 0 266240 0 0 0 0 0 0 0 0 0 0 0 0 0 0 0 67108864 0 0 0 0 0 0 0 0 0 0 0 0 4194304 0 0 0 0 0 0 0 0 0 0 0 0 0 0 0 0 0 0 0 0 0 0 0 0 0 0 0 0 0 0 0 4096 0 0 0 0 0 0 0 0 0 0 0 0 0 0 0 0 0 0 0 0 0 0 0 0 0 0 0 0 0 0 0 0 0 0 0 0 0 0 0 0 0 0 0 0 0 0 0 0 0 0 0 0 0 0 0 0 0 0 0 0 0 0 0 0 0 0 0 0 0 0 0 0 0 0 0 0 0 0 0 262144 0 0 0 0 0 4096 0 0 0 0 0 0 0 0 0 0 0 8388608 0 0 0 0 0 0 0 0 0 0 0 0 0 0 0 0 0 0 0 0 0 0 65536 0 0 0 0 0 0 0 0 0 0 0 0 8192 0 0 0 0 0 0 0 0 0 1 0 0 0 0 0 256 0 0 0 0 0 0 0 0 0 0 0 0 0 0 0 0 0 16777216 0 1024 0 0 0 0 0 0 0 0 4 0 0 0 0 0 0 0 0 0 0 0 0 0 0 1 0 0 0 134217728 0 0 0 0 0 0 0 0 0 0 0 0 0 0 0 0 0 0 0 0 0 0 0 0 131072 0 0 0 0 0 0 0 67108864 16 0 0 0 0 0 0 0 0 0 0 0 0 0 0 0 0 0 0 0 0 0 0 0 0 0 0 0 0 0 0 0 0 0 0 0 0 0 0 0 0 0 0 0 0 0 0 0 0 0 0 0 0 0 0 0 0 0 0 0 0 0 0 0 0 0 0 0 0 0 0 0 0 0 0 0 0 0 0 0 0 0 0 0 0 0 0 0 0 0 0 0 0 0 0 16 0 0 0 0 0 0 0 0 0 0 0 0 0 0 0 0 0 0 0 0 0 0 0 0 0 0 0 0 0 0 0 0 0 0 0 0 0 0 0 0 0 0 0 16384 0 0 0 0 0 0 0 0 0 0 0 0 0 0 0 0 0 0 0 0 0 0 0 0 0 0 0 0 0 0 0 0 0 0 0 0 0 0 0 0 0 0 0 0 0 0 0 0 0 0 0 0 0 0 0 0 0 0 0 0 0 0 0 0 0 0 0 0 0 0 0 0 0 0 0 0 0 0 0 0 0 0 0 0 0 0 0 0 0 0 0 0 0 0 0 0 0 0 0 0 0 0 0 0 0 0 0 0 0 0 0 0 0 0 0 0 0 0 0 0 0 0 0 0 0 0 0 0 0 0 0 0 0 0 0 0 0 0 0 0 0 0 0 0 0 0 0 0 0 0 0 0 4194304 0 0 0 0 0 0 0 0 0 0 0 0 0 32768 0 0 0 0 0 0 0 0 0 0 0 0 0 0 0 0 0 0 0 0 67108864 0 0 0 0 0 0 0 0 0 0 0 0 0 0 0 0 0 0 0 0 0 0 0 0 0 0 0 0 0 0 0 0 0 0 0 0 0 0 0 0 0 0 0 0 0 0 0 0 0 0 0 0 0 0 0 0 0 0 0 0 0 32768 0 0 0 0 0 0 0 0 0 0 0 0 0 0 0 0 0 0 0 0 0 0 0 0 0 0 0 0 0 0 0 0 0 0 0 0 0 0 0 0 0 0 16384 0 0 0 0 0 0 0 0 0 0 0 0 0 0 0 0 0 0 0 0 1 0 0 0 0 0 0 0 0 0 0 0 0 0 0 0 0 0 0 0 0 0 0 0 268435456 0 0 0 0 0 0 0 0 0 0 0 0 0 0 0 0 0 0 0 0 0 0 0 0 0 0 1048576 0 0 0 0 0 0 0 0 0 0 0 0 4096 0 0 0 0 0 0 0 0 0 0 0 0 0 0 0 0 0 0 0 0 0 0 0 0 0 0 0 0 0 65536
is_linear=0
shrinkage=0.04375


Tree=10
num_leaves=15
num_cat=0
split_feature=0 1 35 2 63 0 1 35 46 47 0 1 35 0
split_gain=22875.7 14644.1 3860.62 2308.07 2268.91 1771.25 1737.99 1706.75 1347.62 1240.45 1194.01 1132.83 1021.9 1283.09
threshold=1.0000000180025095e-35 1.0000000180025095e-35 70.500000000000014 0.062572505000000014 1.0000000180025095e-35 1.5000000000000002 0.028388942500000004 28.500000000000004 inf 1.0000000180025095e-35 2.5000000000000004 0.071346472500000008 14.500000000000002 2.5000000000000004
decision_type=2 2 2 2 2 2 2 2 8 10 2 2 2 2
left_child=4 -2 5 -4 -1 8 -7 11 9 -3 -9 -8 -13 -14
right_child=1 2 3 -5 -6 6 7 10 -10 -11 -12 12 13 -15
leaf_value=-0.036037681330981675 0.047144962877510001 0.018509600390304713 -0.0061348750097426604 0.0042725029311762933 -0.017388732328752775 0.054346393543944757 0.057815218058041053 -0.0038234102572571671 0.052644348996142884 -0.0047674909528365953 0.014519779923654429 0.035318804397347969 -0.011817781015601974 0.024997514716497003
leaf_weight=15018.714437826071 8756.7782867783681 3227.131359658204 48699.421795300761 46079.613996290835 14016.532105887803 1255.6628234609962 1092.0397609323263 6071.3321504782652 563.55475380271673 12009.725477453496 11243.957912071841 3416.2247191462666 1688.7347228266299 2787.7440046472475
leaf_count=886176 12146 11231 716625 328487 378912 1349 1159 44011 672 143249 50832 7987 9887 8813
internal_value=0 0.00534397 0.00269397 -0.00107495 -0.0270355 0.0109332 0.016035 0.0142052 0.00203523 0.000162284 0.00808768 0.0259936 0.0215885 0.0111077
internal_weight=0 146892 138135 94779 29035.2 43356.1 27555.7 26300 15800.4 15236.9 17315.3 8984.74 7892.7 4476.48
internal_count=2601536 1336448 1324302 1045112 1265088 279190 124038 122689 155152 154480 94843 27846 26687 18700
is_linear=0
shrinkage=0.0333333


Tree=11
num_leaves=15
num_cat=0
split_feature=0 1 35 2 63 0 1 35 35 47 35 0 0 50
split_gain=26035.6 16282 4513.25 2755.95 2589.13 2343.09 1842.91 1555.27 1501.07 1276.44 1205.81 1188.8 1009.45 948.742
threshold=1.0000000180025095e-35 1.0000000180025095e-35 58.500000000000007 0.062572505000000014 1.0000000180025095e-35 1.5000000000000002 0.034455990000000013 1.0000000180025095e-35 14.500000000000002 1.0000000180025095e-35 187.50000000000003 2.5000000000000004 2.5000000000000004 0.0076701183500000004
decision_type=2 2 2 2 2 2 2 2 2 10 2 2 2 8
left_child=4 -2 5 10 -1 7 -7 -3 -8 -9 11 -4 -10 -11
right_child=1 2 3 -5 -6 6 8 9 12 13 -12 -13 -14 -15
leaf_value=-0.016112038483725541 0.020784048598977339 0.023503565386933725 -0.00219690166188935 0.0020905625898251989 -0.0077347238264709305 0.024783115342050487 0.015867543954065113 0.0086960634532902738 0.0014546201982084004 -0.010904206508926251 -0.0045338414028610746 0.0047669407664371194 0.0084545658694819663 -0.00016538645141983178
leaf_weight=15756.282844954112 9257.3896859977394 598.02444373071194 17728.006996668759 51121.964973724855 14424.478650518926 1321.4058092869818 3548.764984562993 2720.0047555435449 6964.9153961483389 2087.2264772586059 28802.004676641576 6969.3828888087592 10612.125827884767 8582.9709942828631
leaf_count=886176 12146 672 226872 356706 378912 1353 7987 9129 41431 33416 457638 63030 41444 84624
internal_value=0 0.00243119 0.00122667 -0.000281311 -0.0121084 0.00555675 0.00841654 0.000967325 0.00739247 -3.92965e-05 -0.00254784 -0.000231629 0.00568104 -0.00226647
internal_weight=0 150314 141057 104621 30180.8 36435.4 22447.2 13988.2 21125.8 13390.2 53499.4 24697.4 17577 10670.2
internal_count=2601536 1336448 1324302 1104246 1265088 220056 92215 127841 90862 127169 747540 289902 82875 118040
is_linear=0
shrinkage=0.0142857


Tree=12
num_leaves=15
num_cat=0
split_feature=0 1 35 63 2 0 1 36 35 35 0 1 1 47
split_gain=21461 13817.3 3769.57 2134.24 2096.95 1712.82 1540.15 1423.35 1421.39 1206.8 1072.38 1031.25 971.109 931.417
threshold=1.0000000180025095e-35 1.0000000180025095e-35 58.500000000000007 1.0000000180025095e-35 0.089311450000000014 1.5000000000000002 0.034455990000000013 238.01000000000002 28.500000000000004 1.0000000180025095e-35 2.5000000000000004 0.071346472500000008 0.05130642450000001 1.0000000180025095e-35
decision_type=2 2 2 2 2 2 2 8 2 2 2 2 2 10
left_child=3 -2 5 -1 7 9 -7 -4 11 -3 -10 -8 -12 -11
right_child=1 2 4 -5 -6 6 8 -9 10 13 12 -13 -14 -15
leaf_value=-0.042355372047888848 0.055751858784083591 0.061668170132787949 -0.0020865487326132415 -0.020453271572169376 0.0085826754208543354 0.064919720448911505 0.067418581611150996 -0.018333969015990947 -0.0069686246302818949 0.021695254863754291 0.072114213885100073 0.025793346832713882 0.014679670616796378 -0.0049477646384762123
leaf_weight=14677.227273535333 8487.8981325253844 539.88917571306229 63656.960989959858 13827.822969883739 27933.967940105824 1224.7653642445803 1087.2747162766755 9979.6742497154628 4055.1746748719597 2653.5741170472465 503.50006657093763 7686.4016042475123 7286.4297691441607 10049.500167729857
leaf_count=886176 12146 672 765415 378912 157005 1353 1159 181826 30385 9129 559 26687 32072 118040
internal_value=0 0.00623172 0.00315584 -0.0317311 -0.000748685 0.0144591 0.0213405 -0.00428865 0.0187509 0.0031078 0.00971093 0.0309541 0.0183947 0.000617381
internal_weight=0 145145 136657 28505.1 101571 35086.5 21843.5 73636.6 20618.8 13243 11845.1 8773.68 7789.93 12703.1
internal_count=2601536 1336448 1324302 1265088 1104246 220056 92215 947241 90862 127841 63016 27846 32631 127169
is_linear=0
shrinkage=0.04


Tree=13
num_leaves=15
num_cat=3
split_feature=0 1 2 15 63 36 63 6 77 47 43 63 77 77
split_gain=19329.1 12661.7 3629.95 2354.93 1942.41 1358.22 1220.37 1041.27 1012.28 935.333 908.168 699.291 636.304 613.307
threshold=1.0000000180025095e-35 1.0000000180025095e-35 0.14255828500000003 -1.0000000180025095e-35 1.0000000180025095e-35 158.70500000000001 1.0000000180025095e-35 inf 0 0.10785000000000002 2.5200000000000005 1.0000000180025095e-35 1 2
decision_type=2 2 2 10 2 8 2 8 9 8 2 2 9 9
left_child=4 -2 3 6 -1 9 7 -3 -4 -5 -11 -10 -7 -9
right_child=1 2 8 5 -6 12 -8 13 11 10 -12 -13 -14 -15
leaf_value=-0.042678798644118637 0.056841943880448255 0.0043838609715273757 -0.063983549815054941 -0.0063527956818004994 -0.020588659859252692 -0.028925759630477894 -0.0069072620878959743 -0.021375330301128207 0.023623207081831007 0.01841616147617265 0.00051565760700565796 0.0032925823850623302 -0.0095376118765254734 0.020626432195893666
leaf_weight=14129.723083787307 8081.2820855863392 17218.853536982031 242.33634898206219 22417.782851032855 13531.596356432827 3404.2156329306308 7628.2887418377795 621.53327594068833 17072.132064580452 6759.3269269316224 18090.214748762548 3548.8079939441523 21534.915009536431 15844.569529677567
leaf_count=886176 12146 161408 2102 263324 378912 68060 98720 8126 65918 37734 167200 19697 300933 131080
internal_value=0 0.00618862 0.00314238 0.000206517 -0.0318731 -0.00433281 0.00814044 0.0115484 0.0191162 -0.000181672 0.00538522 0.0201151 -0.0122001 0.0190398
internal_weight=0 142464 134383 113520 27661.3 72206.5 41313.2 33685 20863.3 47267.3 24849.5 20620.9 24939.1 16466.1
internal_count=2601536 1336448 1324302 1236585 1265088 837251 399334 300614 87717 468258 204934 85615 368993 139206
cat_boundaries=0 880 1722 2517
cat_threshold=0 0 0 0 0 0 0 0 0 0 0 0 0 0 0 0 0 0 0 0 0 0 0 0 0 0 0 0 0 0 0 0 0 0 0 0 0 0 0 0 0 0 0 0 0 0 0 2048 0 0 0 0 0 0 0 0 0 0 0 0 0 0 0 0 0 0 0 0 0 0 0 0 0 0 0 0 0 0 0 0 0 0 0 0 0 0 8 0 0 0 0 0 0 0 0 0 0 0 0 0 0 0 0 0 0 0 0 0 0 0 0 0 0 0 0 16384 0 0 0 0 0 0 0 0 0 0 0 0 0 0 0 0 0 0 0 0 0 0 0 0 0 0 0 0 0 0 0 0 0 0 0 0 0 0 0 0 0 0 0 0 0 0 0 0 0 0 0 64 0 0 0 0 0 0 0 0 0 0 0 0 0 0 0 0 0 2048 0 0 0 0 0 0 0 0 0 0 0 0 0 0 0 0 0 0 0 0 0 0 4194304 0 0 0 0 0 0 0 0 0 0 0 0 0 0 0 0 0 16384 0 0 0 0 0 0 0 0 0 0 0 0 0 0 0 0 0 0 0 0 0 0 0 0 0 0 0 0 0 0 0 0 0 0 0 0 0 0 0 0 0 0 0 0 0 0 0 0 0 0 0 0 0 0 0 0 64 0 0 0 0 0 1024 0 0 0 0 0 0 0 0 0 0 0 0 0 0 0 0 0 0 0 0 0 0 0 0 0 0 0 0 0 0 0 0 0 0 0 0 0 0 0 0 0 0 0 0 0 0 0 0 0 0 0 0 0 0 0 0 0 0 0 0 0 0 0 0 0 0 0 0 0 0 0 0 0 0 0 0 128 0 0 0 268435456 0 0 0 0 0 0 0 0 0 0 0 0 0 0 0 0 0 0 8 0 0 0 0 0 0 0 0 0 0 0 0 0 0 0 0 0 0 0 0 0 0 0 0 0 0 0 0 0 0 0 0 256 0 0 0 0 0 0 0 0 0 0 0 0 0 0 0 0 0 0 0 0 0 0 0 0 0 0 0 0 0 0 0 0 0 0 0 0 0 0 0 0 0 0 0 0 0 0 0 0 0 0 0 0 0 0 0 0 0 0 0 0 0 0 0 0 0 0 0 0 0 0 0 0 0 0 0 0 0 0 1048576 4096 0 16 0 0 0 0 0 0 0 0 0 0 0 0 0 0 0 0 0 0 0 0 0 0 0 0 0 0 0 0 0 0 0 0 0 0 0 0 0 0 0 0 0 0 0 0 0 0 0 0 0 0 0 0 0 0 0 0 0 65536 0 0 0 0 0 0 0 0 0 32 0 0 0 0 0 0 0 0 0 0 0 0 0 32 0 0 0 0 0 0 0 0 0 0 0 0 0 0 0 0 0 0 0 0 0 0 0 0 0 0 0 0 0 0 0 0 0 0 0 0 0 0 0 0 0 0 0 0 0 0 0 0 0 0 0 0 0 131072 0 0 0 0 0 0 131072 0 0 0 0 0 0 0 0 0 0 32 0 0 0 0 0 0 0 0 0 0 0 0 0 0 0 0 0 0 0 0 0 0 0 0 0 0 0 0 0 0 0 0 0 0 0 0 0 0 0 0 0 0 0 0 0 0 536870912 0 0 0 0 0 0 0 0 0 0 0 0 0 0 4096 0 0 0 0 0 0 0 0 0 0 0 268435456 0 0 0 0 0 0 0 0 0 0 0 0 0 0 0 0 0 67108864 0 0 0 0 0 0 0 0 0 0 0 0 0 0 0 0 0 0 0 0 0 0 65536 0 0 0 0 0 0 0 0 0 0 0 0 0 0 0 0 0 0 0 0 0 0 0 0 0 0 0 0 0 0 0 0 0 0 0 0 0 0 0 0 0 0 256 268435456 0 0 0 0 0 0 0 0 0 0 0 0 0 0 0 0 0 0 0 0 0 0 0 0 0 0 0 0 0 0 0 0 0 0 0 0 0 0 0 0 0 0 512 0 0 0 0 0 0 0 0 0 0 0 0 0 0 0 0 16777216 0 4194304 0 0 0 0 0 0 0 0 0 0 0 0 0 0 0 0 0 0 0 0 0 0 0 0 0 0 0 0 0 0 0 0 0 0 0 0 0 0 0 0 0 0 0 0 0 0 0 0 0 0 0 64 0 0 0 0 0 0 0 0 0 0 4100 0 0 0 0 0 0 0 0 0 0 0 0 0 0 0 0 0 0 0 0 0 0 0 0 0 0 0 0 0 0 0 0 0 2 0 0 0 0 0 0 0 0 0 0 0 0 0 0 0 0 0 0 0 0 0 0 0 0 0 0 0 0 0 0 0 0 0 0 0 0 0 0 0 0 0 0 0 0 0 262144 0 0 0 0 0 0 0 0 0 0 0 0 0 0 0 0 0 0 0 0 0 0 0 0 0 0 0 0 0 0 0 0 0 0 0 0 0 0 0 0 0 0 0 0 0 0 0 0 0 0 0 0 0 8192 0 0 0 0 0 0 0 0 0 0 0 0 0 0 0 0 0 0 0 0 0 32768 0 0 0 0 0 0 0 0 0 0 0 16777216 0 1024 0 0 0 0 0 0 0 0 4 0 0 0 0 0 0 0 0 0 0 0 0 0 0 1 0 0 0 0 0 0 0 0 0 0 0 0 0 0 0 0 0 0 0 0 0 0 0 0 0 0 0 0 131072 0 0 0 0 0 0 16384 0 0 0 0 0 0 0 0 0 0 0 0 0 0 0 0 0 0 0 0 0 0 0 0 0 0 0 0 0 0 0 0 0 0 0 0 0 0 0 0 0 0 131072 0 0 0 0 0 0 0 0 0 0 0 0 0 0 0 0 0 0 0 0 0 0 4096 0 0 0 0 0 0 0 0 0 0 0 0 0 0 0 0 0 0 0 0 0 0 0 0 0 0 0 0 0 0 0 0 0 0 0 0 0 0 0 0 0 0 0 0 0 0 0 0 0 0 0 0 0 0 0 0 0 0 0 0 0 0 0 0 0 0 0 0 0 0 0 0 0 0 0 8192 0 0 0 0 0 0 0 0 0 0 0 0 0 0 0 0 0 0 0 0 0 0 0 0 0 0 0 0 0 0 0 0 0 0 0 0 0 0 0 0 0 0 0 0 0 0 0 0 0 128 16384 0 0 0 0 0 0 0 0 0 0 0 0 0 0 0 0 0 0 0 0 0 0 0 0 0 0 0 0 0 0 0 0 0 0 0 0 0 0 0 0 0 0 0 0 0 0 0 0 0 0 0 0 0 0 0 0 0 0 0 0 0 0 0 0 0 0 0 0 0 0 0 0 0 0 0 0 0 0 0 0 0 0 0 0 0 0 0 0 0 0 0 0 0 0 0 0 0 0 0 0 0 0 0 0 0 0 0 0 0 0 0 0 0 0 32768 0 0 0 0 0 0 0 0 0 0 0 0 0 0 0 0 0 0 0 0 0 0 0 0 0 0 0 0 0 0 0 4 0 0 0 0 0 0 0 0 0 0 0 0 0 0 0 0 0 0 0 0 0 0 0 0 0 0 0 0 0 0 0 0 0 0 0 64 0 0 0 0 0 0 0 0 0 0 0 0 0 0 0 1048576 0 0 0 0 0 0 1048576 0 0 0 0 0 0 0 0 0 0 0 0 0 0 0 0 0 0 0 0 0 0 0 0 0 0 0 0 0 0 0 0 0 0 16384 0 0 0 0 0 0 0 0 0 0 0 0 0 0 0 0 0 0 0 0 1 0 0 0 0 0 0 8 0 0 0 0 0 0 0 0 0 0 0 0 0 0 0 0 268435456 0 0 0 0 0 0 0 0 0 0 0 0 0 0 0 0 0 0 0 8388608 0 0 0 0 0 0 0 0 0 0 0 0 0 0 0 0 0 0 0 4096 0 0 0 0 0 0 0 0 0 0 0 0 2097152 0 0 0 0 0 0 0 0 0 0 0 0 0 0 0 0 65536 0 0 0 0 0 0 0 0 0 0 0 0 0 0 0 0 0 0 0 0 0 0 0 0 0 0 0 0 0 0 0 0 0 0 0 0 0 0 0 0 0 0 0 0 0 0 0 2048 0 0 0 0 0 0 0 32768 0 0 0 0 0 0 4 0 0 0 0 0 0 0 0 0 0 0 0 0 2147483648 0 0 0 0 0 0 0 0 0 0 0 0 0 0 0 0 0 0 0 0 0 0 0 0 0 0 0 0 0 0 0 0 0 0 0 0 0 0 0 8 0 1073741824 0 0 0 0 0 0 0 0 0 0 0 0 0 0 0 0 0 0 0 0 0 0 0 0 0 0 0 0 0 0 0 0 0 0 0 0 0 0 0 0 0 0 0 0 0 0 0 0 0 0 0 0 0 0 0 512 0 0 0 0 0 0 0 0 0 0 0 0 0 0 0 0 0 4 0 0 0 0 0 0 0 0 0 0 0 0 0 0 0 0 0 0 0 0 0 0 0 0 0 0 0 2 0 0 0 0 0 0 0 0 0 0 0 0 0 0 0 0 0 0 0 0 0 0 0 0 0 0 0 0 0 67108864 0 0 0 0 0 0 0 0 0 0 0 0 0 0 0 0 0 0 0 0 0 0 0 0 0 0 0 0 0 0 0 0 0 0 0 0 0 0 0 0 0 0 256 0 0 0 0 0 0 0 0 0 0 0 0 0 0 0 0 0 0 0 0 0 0 0 0 0 0 4096 0 0 0 0 16777216 0 0 0 0 0 0 0 0 0 0 8388672 0 0 0 0 0 0 0 0 0 0 0 0 0 0 0 0 0 0 0 0 0 32768 0 0 0 0 0 0 0 0 0 0 0 0 0 0 0 0 0 0 0 0 0 0 0 0 0 0 0 0 0 0 0 0 0 0 0 0 1048576 0 0 0 0 0 0 0 0 0 0 0 0 0 0 0 0 0 0 0 0 0 0 0 0 0 0 0 0 0 0 0 0 0 0 0 0 0 0 0 0 0 0 0 32 0 0 0 0 0 0 0 0 0 0 0 0 0 0 0 0 0 0 0 0 0 0 0 0 0 0 0 0 0 0 0 0 0 0 0 0 0 0 0 0 0 0 0 0 0 0 0 16 0 0 0 0 0 0 0 0 0 0 0 0 0 0 0 0 0 0 0 0 0 0 1024 0 0 0 0 0 0 0 0 0 0 0 0 0 1048576 0 0 0 0 33554432 0 0 16384 0 0 0 0 0 0 0 0 0 0 0 0 0 0 0 0 0 0 0 0 0 0 0 0 0 0 0 0 0 0 0 0 0 0 0 0 0 0 0 0 0 0 0 0 0 0 0 0 0 0 0 0 0 0 0 0 0 0 0 0 0 0 0 0 0 0 0 0 0 0 0 0 0 0 0 0 0 0 0 0 0 0 0 0 0 8 0 0 4096 0 0 0 0 0 0 0 0 0 0 0 0 0 0 0 0 0 0 0 0 0 0 0 0 0 0 0 0 0 0 0 0 0 0 0 0 0 0 0 0 0 0 0 0 0 0 0 0 0 0 0 0 0 0 0 0 0 0 0 0 0 0 0 0 0 0 0 0 0 4194304 0 0 0 0 0 0 0 0 0 33554432 0 0 0 0 0 0 0 0 0 16384 0 0 0 0 0 0 0 0 0 0 0 0 0 0 0 0 0 0 0 0 0 0 0 0 0 0 0 0 4 0 0 0 0 0 0 0 0 0 0 0 0 524288 0 0 0 0 0 0 0 0 0 0 0 0 0 0 0 0 0 0 0 0 0 0 0 0 0 0 0 0 0 0 0 2 0 0 0 0 0 0 0 0 524288
is_linear=0
shrinkage=0.0416667


Tree=14
num_leaves=15
num_cat=2
split_feature=0 1 29 35 63 36 77 47 36 47 0 0 63 77
split_gain=17403.8 11669 3578.7 2146.43 1765.29 1063.21 987.362 899.657 852.299 703.623 708.604 685.722 608.06 607.09
threshold=1.0000000180025095e-35 1.0000000180025095e-35 15.534602500000002 58.500000000000007 1.0000000180025095e-35 144.00500000000002 0 0.26545000000000007 129.00500000000002 0.21945000000000003 1.5000000000000002 1.5000000000000002 1.0000000180025095e-35 1
decision_type=2 2 10 2 2 8 9 8 8 8 2 2 2 9
left_child=4 -2 3 7 -1 12 -4 11 9 10 -8 -3 -5 -10
right_child=1 2 6 5 -6 -7 8 -9 13 -11 -12 -13 -14 -15
leaf_value=-0.015929949104175656 0.021516693453510781 -0.00017096865757572298 -0.011390323184615598 0.0044302770980889647 -0.0076846540628677188 -0.0010329016211668284 -0.0058564458084897596 0.011739330293301297 0.017487137963090447 0.0039650811357024507 0.000557255341670457 0.0071998641321427545 -0.0016742974526561651 -0.0044016842647169197
leaf_weight=13584.72255492612 7687.7621141690761 4527.0314443780226 2773.9118229873711 26943.055595100392 13252.230449885246 23416.569522458361 6447.9741185255698 7951.4526361980243 323.05649139848538 8917.4658974381164 14350.98108662077 11640.383273809333 4995.0101894779364 20453.977669295738
leaf_count=886176 12146 48386 62336 180972 378912 256413 115085 28927 1896 62857 144609 52861 46482 323478
internal_value=0 0.00226628 0.00115132 0.00331174 -0.0118586 0.00156823 -0.00207189 0.00731304 -0.0015573 0.000188217 -0.00143097 0.00513578 0.00347544 -0.00405472
internal_weight=0 140429 132741 79473.5 26837 55354.6 53267.4 24118.9 50493.5 29716.4 20799 16167.4 31938.1 20777
internal_count=2601536 1336448 1324302 614041 1265088 483867 710261 130174 647925 322551 259694 101247 227454 325374
cat_boundaries=0 825 1710
cat_threshold=0 4096 0 0 33554432 0 0 0 0 0 0 0 0 0 0 0 128 0 0 0 0 0 0 0 0 0 0 0 0 0 0 0 0 0 0 0 0 0 0 0 0 0 0 0 0 0 0 0 0 0 0 64 0 0 0 0 0 0 0 0 0 0 0 0 0 0 0 0 0 0 0 0 0 128 0 0 2147483648 0 0 0 0 0 0 0 0 0 0 0 0 0 0 0 0 0 0 0 0 0 0 0 0 0 0 0 0 0 0 0 0 0 0 0 0 0 0 0 0 0 0 0 0 0 0 0 0 0 0 0 0 0 0 0 0 0 0 0 0 0 0 0 1073741824 0 0 0 0 0 0 0 4096 0 0 0 0 0 0 0 0 0 0 0 0 0 4194304 0 0 0 0 0 0 0 0 0 0 0 0 0 0 0 0 0 0 0 0 0 0 0 0 0 0 0 0 0 0 0 0 0 0 0 0 0 0 0 0 0 0 0 0 0 0 0 0 0 0 0 0 0 0 0 0 0 0 0 0 0 0 0 0 0 0 0 0 0 0 0 0 0 0 0 0 0 0 0 0 0 0 0 0 0 0 0 0 0 0 0 0 0 1 0 0 0 0 0 0 0 0 0 0 0 0 0 0 0 0 0 0 0 0 0 0 0 0 0 0 0 0 0 0 0 0 0 0 0 0 0 0 0 0 0 0 0 0 0 2147483648 0 0 0 0 0 0 0 0 0 0 0 0 0 0 0 0 0 0 0 0 0 0 16777216 16384 0 0 0 0 0 0 0 0 0 0 0 0 0 0 0 0 0 0 0 0 0 0 0 0 0 0 0 0 0 128 0 0 0 0 0 0 0 0 0 0 0 0 0 0 0 0 0 0 0 0 0 0 0 0 0 0 0 0 0 0 0 0 0 0 0 0 4096 0 0 0 0 1 0 0 0 0 0 0 0 0 0 0 0 0 0 0 0 0 0 0 0 0 0 0 0 0 0 0 0 0 0 0 0 0 0 0 0 0 0 0 0 0 32 0 0 0 0 0 0 0 0 0 0 0 0 0 0 0 0 0 0 0 0 0 0 0 0 0 0 0 0 16777216 0 0 0 0 0 0 0 0 0 0 0 0 0 0 0 0 0 0 0 0 0 0 0 0 0 0 64 0 0 0 0 0 0 0 0 0 0 0 0 0 0 0 0 0 0 0 0 0 0 0 0 0 0 0 0 0 0 0 0 0 0 0 0 0 0 0 0 0 0 0 0 0 0 0 0 0 0 0 0 0 0 0 0 0 0 0 0 0 0 0 0 0 0 0 0 0 0 0 0 0 0 0 0 0 0 0 0 0 0 0 0 0 0 0 0 0 0 0 0 64 0 0 0 0 64 0 0 0 0 0 0 0 0 0 0 0 0 0 0 0 0 0 0 0 4 0 0 0 0 0 0 0 0 0 0 0 0 0 0 0 0 0 0 0 0 0 0 0 0 4194304 0 0 0 0 0 0 0 0 0 0 0 0 0 0 0 0 0 0 0 0 0 0 0 0 0 0 0 0 0 0 0 0 0 0 0 0 0 0 0 0 0 0 0 0 0 33554432 0 0 0 0 0 0 0 0 0 0 0 0 0 0 0 0 0 0 0 0 0 16777216 0 0 0 0 0 0 0 0 0 64 0 256 0 0 0 0 0 0 0 16384 0 0 0 0 0 2097152 0 0 0 0 0 0 0 0 0 0 0 0 0 0 0 0 0 0 0 0 0 0 0 0 0 0 0 0 0 0 0 0 0 0 0 0 0 0 0 0 0 0 0 0 0 0 0 0 0 0 0 0 0 0 0 0 0 0 0 0 0 0 0 0 0 0 0 0 0 16 0 0 0 0 0 0 0 0 0 0 0 524288 0 0 0 0 0 0 0 0 0 16777216 0 0 0 0 0 0 0 0 0 536870912 0 0 0 0 0 0 0 0 0 0 0 0 0 0 0 0 0 0 0 0 0 0 0 0 0 0 0 0 0 0 0 0 0 0 0 0 0 0 0 0 0 0 0 0 0 0 0 0 0 0 0 0 0 0 0 0 0 0 0 0 0 0 0 0 0 0 0 0 0 0 0 0 0 0 0 0 0 32768 0 0 0 0 0 0 0 32 0 0 0 0 0 0 0 0 0 0 0 0 0 0 0 0 0 0 8192 0 0 0 0 0 0 0 256 0 0 0 0 0 0 0 0 0 0 0 0 0 0 0 0 0 0 0 0 0 0 0 8192 0 0 0 0 0 0 0 0 0 0 2097152 0 0 0 0 0 0 0 0 0 0 0 0 0 0 0 0 0 16777216 0 0 0 0 0 0 0 0 0 0 0 0 0 0 0 0 0 0 0 0 0 0 0 0 0 0 0 0 0 0 0 0 0 0 0 0 0 0 0 0 0 0 0 0 0 0 0 0 0 0 0 0 0 0 0 0 0 0 16777224 0 0 0 0 0 0 0 0 0 0 0 0 0 16384 0 0 0 0 0 0 0 0 0 0 0 0 0 0 0 0 0 0 0 0 0 0 0 0 0 0 0 0 0 0 0 0 0 0 0 0 0 0 0 0 0 0 0 0 0 0 0 0 0 0 0 0 0 0 0 0 0 0 0 0 0 0 0 0 0 0 0 4 0 0 0 0 0 0 0 0 0 0 0 0 0 0 0 0 0 0 0 0 0 0 0 0 0 0 0 0 0 0 0 0 4096 0 0 65536 0 0 0 0 0 0 0 0 0 0 0 0 0 0 0 0 0 0 0 0 0 0 0 0 0 0 0 0 0 0 0 0 0 0 0 0 0 0 0 0 0 0 0 0 0 0 0 0 0 0 0 0 0 0 0 0 0 0 0 0 0 0 0 0 0 0 0 0 0 0 0 0 0 0 0 0 0 0 0 0 0 0 0 0 0 0 0 0 0 0 0 0 0 0 1048576 0 0 0 0 0 0 0 0 0 0 0 0 0 0 0 0 0 0 0 268435456 0 0 0 0 0 0 0 0 0 0 0 0 0 0 0 4194304 0 8192 0 0 0 0 0 0 0 0 0 0 0 0 0 0 0 0 0 0 0 0 0 0 0 0 0 0 0 0 0 0 0 0 0 2147483648 0 0 0 0 0 0 0 0 0 0 0 0 0 0 0 0 0 0 0 0 0 0 0 0 0 0 0 0 0 0 0 0 0 0 0 0 0 0 0 0 0 0 0 0 0 0 0 0 0 0 64 0 0 0 0 0 0 0 0 0 67108864 0 0 0 0 0 0 0 0 0 0 0 0 0 0 0 0 0 0 0 0 0 0 0 0 0 0 0 0 0 0 0 0 0 0 0 0 0 0 0 0 0 0 0 0 0 0 0 0 0 0 0 0 0 0 0 0 0 0 0 0 8 0 0 0 0 0 0 0 0 0 0 0 0 0 0 0 1073741824 0 0 0 0 0 0 0 0 0 0 0 0 0 0 0 0 134217728 0 0 0 0 0 0 0 0 0 0 0 0 0 0 0 16 0 0 0 0 0 0 0 0 0 1 0 0 0 0 0 0 0 0 0 0 0 0 0 0 0 0 0 0 0 0 0 0 0 0 0 0 0 0 0 0 0 0 0 0 0 0 0 0 0 0 0 0 0 0 0 0 0 0 0 0 0 0 0 0 0 0 0 0 0 0 0 0 0 0 0 0 0 0 0 0 0 0 0 0 1 0 0 0 0 0 0 0 16 0 0 0 0 0 0 0 0 0 0 0 0 0 0 0 0 0 0 0 0 0 0 0 0 0 0 0 0 0 0 0 0 0 128 0 0 0 0 0 0 0 0 0 0 0 0 0 0 0 0 0 0 0 0 4194304 0 0 0 0 524288 0 0 0 0 0 0 0 0 0 0 0 0 0 0 0 0 0 0 0 0 0 0 0 0 0 0 0 0 0 0 0 0 0 0 0 0 0 0 0 0 134217728
is_linear=0
shrinkage=0.0160714


Tree=15
num_leaves=15
num_cat=1
split_feature=0 1 29 15 63 36 63 47 49 47 0 29 35 77
split_gain=15837.1 10766.5 3223.73 1998.44 1621.04 1099.23 987.049 947.246 1383.41 868.073 821.584 633.821 623.36 618.953
threshold=1.0000000180025095e-35 1.0000000180025095e-35 7.0425725000000012 -1.0000000180025095e-35 1.0000000180025095e-35 238.01000000000002 1.0000000180025095e-35 0.093750000000000014 0.087450000000000014 0.21555000000000005 1.5000000000000002 17.604522500000005 13.500000000000002 0
decision_type=2 2 10 10 2 8 2 8 8 8 2 10 2 9
left_child=4 -2 12 6 -1 7 9 -5 13 10 -4 -10 -3 -9
right_child=1 2 3 5 -6 -7 -8 8 11 -11 -12 -13 -14 -15
leaf_value=-0.017664950301574972 0.024160758844712062 0.015306173136290752 -0.0037219414016427038 -0.0036611241670864588 -0.008515840034760044 -0.0080862946704469887 -0.0027821835775496567 -0.013682747625847987 0.00059782290480522361 0.0088508894578681659 0.004517979138675899 -0.0056767013382520359 0.0066293650856551331 0.0076425803440815093
